svm_type c_svc
kernel_type rbf
gamma 0.005
nr_class 3
total_sv 5470
rho -10.3833 -36.037 -22.7826
label 1 2 3
nr_sv 2542 1122 1806
SV
0 11.55887123556497 1:0.706422 2:0.17681 3:-0.865763 4:-0.29396 5:-0.495389 6:-0.990232 7:-0.996221 8:-0.619012 9:0.159463 10:-0.229051 11:-0.997886 13:-0.978261 14:-0.2 15:0.687527 16:-0.975 17:-0.97974 18:-1 19:-0.545455 20:-1 21:-0.971357 23:0.316209 24:-0.909091 25:0.309677 26:-0.991803 27:-0.906977 28:-1 29:-0.962963 30:-0.92 31:0.591116 32:-1 33:-0.796875 34:0.64 35:-1 36:-1 37:-1 38:-1 39:-0.625 40:-0.64 41:-0.2 42:-0.84375 43:0.684211 44:-1 45:-1 46:-0.36 47:-0.92 48:-0.333333 49:-1 50:-1 51:1 52:1 
0 128 1:0.853211 2:-0.772309 3:-0.749153 4:-0.968316 5:-0.454545 6:-0.965201 7:-0.985448 8:-0.280665 9:-0.783163 10:-0.179752 11:-0.85358 13:-0.934783 14:-0.2 15:0.133171 16:-0.95 17:-0.994211 18:1 19:-0.454545 20:-0.992958 21:-0.942714 23:0.196081 24:-0.909091 25:-0.967742 26:-0.97541 27:-1 28:-1 29:-1 30:-0.714286 31:-0.867108 32:-1 33:-0.78125 34:0.4 35:-1 36:-1 37:-1 38:-1 39:-0.25 40:-0.4 41:0.2 42:-0.90625 43:0.621053 44:-1 45:-1 46:-0.32 47:-0.9 48:-1 49:-1 50:-1 51:-0.938959 52:-0.569416 
0 128 1:0.853211 2:-0.772309 3:-0.749153 4:-0.95415 5:-0.470356 6:-0.965201 7:-0.98587 8:-0.280665 9:-0.685015 10:-0.203584 11:-0.85358 13:-0.934783 14:-0.2 15:0.295731 16:-0.955 17:-0.994211 18:1 19:-0.454545 20:-0.978873 21:-0.936349 23:-0.553892 24:-0.909091 25:-0.967742 26:-0.97541 27:-1 28:-1 29:-1 30:-0.714286 31:-0.867108 32:-0.875 33:-0.71875 34:0.9 35:-1 36:-1 37:-1 38:-1 39:-0.875 40:-0.9 41:0.2 42:-0.40625 43:0.768421 44:-1 45:-1 46:-0.44 47:-1 48:0.333333 49:-1 50:-1 51:-0.938959 52:-0.569416 
0 128 1:0.853211 2:-0.772309 3:-0.749153 4:-0.948693 5:-0.505929 6:-0.976801 7:-0.991212 8:-0.280665 9:-0.647215 10:-0.257209 11:-0.905115 13:-0.956522 14:-0.2 15:0.440023 16:-0.97 17:-0.994211 18:1 19:-0.454545 20:-0.978873 21:-0.953626 23:-0.674125 24:-0.909091 25:-0.967742 26:-0.97541 27:-1 28:-1 29:-1 30:-0.714286 31:-0.867108 32:-0.875 33:-0.796875 34:0.74 35:-1 36:-1 37:-1 38:-1 39:-0.75 40:-0.74 41:0.2 42:-0.75 43:0.747368 44:-1 45:-0.973333 46:-0.44 47:-0.96 48:0.333333 49:-1 50:-1 51:-0.938959 52:-0.569416 
0 128 1:0.853211 2:-0.772309 3:-0.749153 4:-0.945056 5:-0.467721 6:-0.953602 7:-0.981066 8:-0.280665 9:-0.622016 10:-0.199612 11:-0.802045 13:-0.913043 14:-0.2 15:0.558038 16:-0.9375 17:-0.994211 18:1 19:-0.454545 20:-0.978873 21:-0.893612 23:-0.256475 24:-0.909091 25:-0.967742 26:-0.97541 27:-1 28:-1 29:-1 30:-0.714286 31:-0.867108 32:-0.875 33:-0.578125 34:0.8 35:-1 36:-1 37:-1 38:-1 39:-0.625 40:-0.8 41:0.2 42:-0.9375 43:0.705263 44:-1 45:-0.866667 46:-0.52 47:-0.98 48:-1 49:-1 50:-1 51:-0.938959 52:-0.569416 
128 128 1:0.853211 2:-0.772309 3:-0.749153 4:-0.927252 5:-0.591568 6:-0.9884 7:-0.996368 8:-0.280665 9:-0.498669 10:-0.386306 11:-0.956659 13:-0.978261 14:-0.2 15:0.687527 16:-0.985 17:-0.994211 18:1 19:-0.454545 20:-0.992958 21:-0.978177 23:-0.22847 24:-0.909091 25:-0.967742 26:-0.97541 27:-1 28:-1 29:-1 30:-0.714286 31:-0.867108 32:-1 33:-0.890625 34:1 35:-1 36:-1 37:-1 38:-1 39:-1 40:-1 42:-0.875 43:0.726316 44:-1 45:-0.946667 46:-0.36 47:-1 48:-1 49:-1 50:-1 51:-0.938959 52:-0.569416 
0 128 1:0.853211 2:-0.772309 3:-0.749153 4:-0.923136 5:-0.467721 6:-0.953602 7:-0.981066 8:-0.280665 9:-0.470153 10:-0.199612 11:-0.802045 13:-0.913043 14:-0.2 15:0.54133 16:-0.915 17:-0.994211 18:1 19:-0.454545 20:-0.992958 21:-0.893612 23:0.518047 24:-0.909091 25:-0.967742 26:-0.97541 27:-1 28:-1 29:-1 30:-0.714286 31:-0.867108 32:-0.625 33:-0.453125 34:0.96 35:-1 36:-1 37:-1 38:-1 39:-0.875 40:-0.96 42:-0.8125 43:0.684211 44:-1 45:-0.92 46:-0.36 47:-1 48:0.333333 49:-1 50:-1 51:-0.938959 52:-0.569416 
128 0 1:0.853211 2:-0.772309 3:-0.749153 4:-0.90715 5:-0.598155 6:-0.9884 7:-0.996426 8:-0.280665 9:-0.359405 10:-0.396238 11:-0.956659 13:-0.978261 14:-0.2 15:0.687527 16:-0.9875 17:-0.985528 18:1 19:-0.454545 20:-1 21:-0.981359 23:0.128647 24:-0.909091 25:-0.967742 26:-0.97541 27:-1 28:-1 29:-1 30:-0.714286 31:-0.867108 32:-1 33:-0.90625 34:1 35:-1 36:-1 37:-1 38:-1 39:-1 40:-1 41:0.2 42:-0.8125 43:0.810526 44:-1 45:-1 46:-0.44 47:-1 48:0.333333 49:-1 50:-1 51:-0.938959 52:-0.569416 
128 0 1:0.853211 2:-0.772309 3:-0.729492 4:-0.894898 5:-0.722003 6:-0.9884 7:-0.997528 8:-0.222543 9:-0.274522 10:-0.582933 11:-0.956659 13:-0.978261 14:-0.2 15:0.687527 16:-0.99 17:-0.968162 18:1 19:-0.681818 20:-1 21:-0.988634 23:-0.181231 24:-0.909091 25:-0.967742 26:-0.97541 27:-1 28:-1 29:-1 30:-0.714286 31:-0.867108 32:-1 33:-0.953125 34:0.2 35:-0.875 36:-0.6 37:-1 38:-1 39:-0.875 40:-0.6 41:0.2 42:-0.90625 43:0.515789 44:-0.904762 45:-1 46:-0.2 47:-0.92 48:-1 49:-1 50:-1 51:-0.938959 52:-0.569416 
0 128 1:0.853211 2:-0.772309 3:-0.748475 4:-0.886857 5:-0.513834 6:-0.976801 7:-0.991353 8:-0.278661 9:-0.218817 10:-0.269127 11:-0.905115 13:-0.956522 14:-0.2 15:-0.00531909 16:-0.98 17:-0.994211 18:1 19:-0.454545 20:-0.992958 21:-0.965901 23:-0.0117845 24:-0.909091 25:-0.967742 26:-0.97541 27:-1 28:-1 29:-1 30:-0.714286 31:-0.867108 32:-0.875 33:-0.859375 34:1 35:-1 36:-1 37:-1 38:-1 39:-1 40:-1 41:0.2 42:-0.71875 43:0.768421 44:-1 45:-0.973333 46:-0.44 47:-1 48:0.333333 49:-1 50:-1 51:-0.938959 52:-0.569416 
0 128 1:0.853211 2:-0.772309 3:-0.748475 4:-0.878625 5:-0.454545 6:-0.965201 7:-0.985448 8:-0.278661 9:-0.161785 10:-0.179752 11:-0.85358 13:-0.934783 14:-0.2 15:0.33426 16:-0.9425 17:-0.994211 18:1 19:-0.454545 20:-0.992958 21:-0.929984 23:0.329336 24:-0.909091 25:-0.967742 26:-0.97541 27:-1 28:-1 29:-1 30:-0.714286 31:-0.867108 32:-1 33:-0.734375 34:0.42 35:-1 36:-1 37:-1 38:-1 39:-0.125 40:-0.42 41:0.2 42:-0.90625 43:0.621053 44:-1 45:-1 46:-0.32 47:-0.9 48:-0.333333 49:-1 50:-1 51:-0.938959 52:-0.569416 
0 128 1:0.853211 2:-0.772309 3:-0.748475 4:-0.872691 5:-0.725955 6:-0.9884 7:-0.997563 8:-0.278661 9:-0.120669 10:-0.588891 11:-0.956659 13:-0.978261 14:-0.2 15:0.687527 16:-0.99 17:-0.988423 18:1 19:-0.454545 20:-0.978873 21:-0.98727 23:-0.907387 24:-0.909091 25:-0.967742 26:-0.97541 27:-1 28:-1 29:-1 30:-0.714286 31:-0.867108 32:-1 33:-0.921875 34:1 35:-1 36:-1 37:-1 38:-1 39:-1 40:-1 42:-0.84375 43:0.768421 44:-1 45:-1 46:-0.36 47:-1 48:1 49:-1 50:-1 51:-0.938959 52:-0.569416 
0 128 1:0.853211 2:-0.772309 3:-0.748475 4:-0.870872 5:-0.470356 6:-0.965201 7:-0.98587 8:-0.278661 9:-0.10807 10:-0.203584 11:-0.85358 13:-0.934783 14:-0.2 15:0.295731 16:-0.955 17:-0.994211 18:1 19:-0.454545 20:-0.978873 21:-0.936349 23:-0.549649 24:-0.909091 25:-0.967742 26:-0.97541 27:-1 28:-1 29:-1 30:-0.714286 31:-0.867108 32:-0.875 33:-0.71875 34:0.9 35:-1 36:-1 37:-1 38:-1 39:-0.875 40:-0.9 41:0.2 42:-0.40625 43:0.768421 44:-1 45:-1 46:-0.44 47:-1 48:0.333333 49:-1 50:-1 51:-0.938959 52:-0.569416 
0 128 1:0.853211 2:-0.772309 3:-0.748475 4:-0.865416 5:-0.505929 6:-0.976801 7:-0.991212 8:-0.278661 9:-0.07027 10:-0.257209 11:-0.905115 13:-0.956522 14:-0.2 15:0.440023 16:-0.97 17:-0.994211 18:1 19:-0.454545 20:-0.978873 21:-0.953626 23:-0.671025 24:-0.909091 25:-0.967742 26:-0.97541 27:-1 28:-1 29:-1 30:-0.714286 31:-0.867108 32:-0.875 33:-0.796875 34:0.74 35:-1 36:-1 37:-1 38:-1 39:-0.75 40:-0.74 41:0.2 42:-0.75 43:0.747368 44:-1 45:-0.973333 46:-0.44 47:-0.96 48:0.333333 49:-1 50:-1 51:-0.938959 52:-0.569416 
0 128 1:0.853211 2:-0.772309 3:-0.748475 4:-0.861779 5:-0.459816 6:-0.953602 7:-0.980785 8:-0.278661 9:-0.0450713 10:-0.187696 11:-0.802045 13:-0.913043 14:-0.2 15:0.429253 16:-0.9425 17:-0.994211 18:1 19:-0.454545 20:-0.978873 21:-0.90316 23:-0.316481 24:-0.909091 25:-0.967742 26:-0.97541 27:-1 28:-1 29:-1 30:-0.714286 31:-0.867108 32:-0.875 33:-0.609375 34:0.8 35:-1 36:-1 37:-1 38:-1 39:-0.625 40:-0.8 41:0.2 42:-0.9375 43:0.705263 44:-1 45:-0.866667 46:-0.52 47:-0.98 48:-0.333333 49:-1 50:-1 51:-0.938959 52:-0.569416 
128 128 1:0.853211 2:-0.772309 3:-0.748475 4:-0.854025 5:-0.524374 6:-0.9884 7:-0.99577 8:-0.278661 9:0.00864564 10:-0.285015 11:-0.956659 13:-0.978261 14:-0.2 15:0.687527 16:-0.985 17:-0.988423 18:1 19:-0.454545 20:-1 21:-0.977722 23:0.214124 24:-0.909091 25:-0.967742 26:-0.97541 27:-1 28:-1 29:-1 30:-0.714286 31:-0.867108 32:-1 33:-0.890625 34:1 35:-1 36:-1 37:-1 38:-1 39:-1 40:-1 41:0.2 42:-0.9375 43:0.747368 44:-1 45:-0.92 46:-0.48 47:-1 48:-0.333333 49:-1 50:-1 51:-0.938959 52:-0.569416 
128 128 1:0.853211 2:-0.772309 3:-0.748475 4:-0.837561 5:-0.495389 6:-0.9884 7:-0.995513 8:-0.278661 9:0.122709 10:-0.241321 11:-0.956659 13:-0.978261 14:-0.2 15:0.687527 16:-0.9825 17:-0.994211 18:1 19:-0.454545 20:-0.992958 21:-0.973176 23:-0.148409 24:-0.909091 25:-0.967742 26:-0.97541 27:-1 28:-1 29:-1 30:-0.714286 31:-0.867108 32:-1 33:-0.875 34:1 35:-1 36:-1 37:-1 38:-1 39:-1 40:-1 41:0.2 42:-0.90625 43:0.726316 44:-1 45:-0.92 46:-0.44 47:-1 48:-1 49:-1 50:-1 51:-0.938959 52:-0.569416 
0 128 1:0.853211 2:-0.772309 3:-0.748475 4:-0.833445 5:-0.467721 6:-0.953602 7:-0.981066 8:-0.278661 9:0.151223 10:-0.199612 11:-0.802045 13:-0.913043 14:-0.2 15:0.54133 16:-0.915 17:-0.994211 18:1 19:-0.454545 20:-0.992958 21:-0.893612 23:0.518047 24:-0.909091 25:-0.967742 26:-0.97541 27:-1 28:-1 29:-1 30:-0.714286 31:-0.867108 32:-0.625 33:-0.453125 34:0.96 35:-1 36:-1 37:-1 38:-1 39:-0.875 40:-0.96 42:-0.8125 43:0.684211 44:-1 45:-0.92 46:-0.36 47:-1 48:0.333333 49:-1 50:-1 51:-0.938959 52:-0.569416 
0 128 1:0.853211 2:-0.772309 3:-0.748475 4:-0.815162 5:-0.644269 6:-0.9884 7:-0.996836 8:-0.278661 9:0.277885 10:-0.465752 11:-0.956659 13:-0.978261 14:-0.2 15:0.687527 16:-0.9875 17:-0.988423 18:1 19:-0.454545 20:-1 21:-0.984087 23:0.0515336 24:-0.909091 25:-0.967742 26:-0.97541 27:-1 28:-1 29:-1 30:-0.714286 31:-0.867108 32:-1 33:-0.90625 34:1 35:-1 36:-1 37:-1 38:-1 39:-1 40:-1 42:-0.8125 43:0.768421 44:-1 45:-1 46:-0.36 47:-1 48:0.333333 49:-1 50:-1 51:-0.938959 52:-0.569416 
128 128 1:0.853211 2:-0.772309 3:-0.748475 4:-0.812865 5:-0.466403 6:-0.9884 7:-0.995255 8:-0.278661 9:0.293802 10:-0.197626 11:-0.956659 13:-0.978261 14:-0.2 15:0.687527 16:-0.9825 17:-0.988423 18:1 19:-0.454545 20:-1 21:-0.971812 23:0.322637 24:-0.909091 25:-0.967742 26:-0.97541 27:-1 28:-1 29:-1 30:-0.714286 31:-0.867108 32:-1 33:-0.875 34:1 35:-1 36:-1 37:-1 38:-1 39:-1 40:-1 41:0.2 42:-0.875 43:0.789474 44:-1 45:-0.973333 46:-0.44 47:-1 48:-0.333333 49:-1 50:-1 51:-0.938959 52:-0.569416 
0 128 1:0.853211 2:-0.772309 3:-0.747119 4:-0.800708 5:-0.513834 6:-0.976801 7:-0.991353 8:-0.274651 9:0.378023 10:-0.269127 11:-0.905115 13:-0.956522 14:-0.2 15:-0.0167521 16:-0.98 17:-0.994211 18:1 19:-0.454545 20:-0.992958 21:-0.969539 23:-0.0676896 24:-0.909091 25:-0.967742 26:-0.97541 27:-1 28:-1 29:-1 30:-0.714286 31:-0.867108 32:-1 33:-0.859375 34:1 35:-1 36:-1 37:-1 38:-1 39:-1 40:-1 41:0.2 42:-0.71875 43:0.810526 44:-1 45:-1 46:-0.44 47:-1 48:0.333333 49:-1 50:-1 51:-0.938959 52:-0.569416 
0 128 1:0.853211 2:-0.772309 3:-0.747119 4:-0.792476 5:-0.454545 6:-0.965201 7:-0.985448 8:-0.274651 9:0.435054 10:-0.179752 11:-0.85358 13:-0.934783 14:-0.2 15:0.33426 16:-0.9425 17:-0.994211 18:1 19:-0.454545 20:-0.992958 21:-0.929984 23:0.329336 24:-0.909091 25:-0.967742 26:-0.97541 27:-1 28:-1 29:-1 30:-0.714286 31:-0.867108 32:-1 33:-0.734375 34:0.42 35:-1 36:-1 37:-1 38:-1 39:-0.125 40:-0.42 41:0.2 42:-0.90625 43:0.621053 44:-1 45:-1 46:-0.32 47:-0.9 48:-0.333333 49:-1 50:-1 51:-0.938959 52:-0.569416 
0 128 1:0.853211 2:-0.772309 3:-0.747119 4:-0.784723 5:-0.470356 6:-0.965201 7:-0.98587 8:-0.274651 9:0.488768 10:-0.203584 11:-0.85358 13:-0.934783 14:-0.2 15:0.295731 16:-0.955 17:-0.994211 18:1 19:-0.454545 20:-0.978873 21:-0.936349 23:-0.549649 24:-0.909091 25:-0.967742 26:-0.97541 27:-1 28:-1 29:-1 30:-0.714286 31:-0.867108 32:-0.875 33:-0.71875 34:0.9 35:-1 36:-1 37:-1 38:-1 39:-0.875 40:-0.9 41:0.2 42:-0.40625 43:0.768421 44:-1 45:-1 46:-0.44 47:-1 48:0.333333 49:-1 50:-1 51:-0.938959 52:-0.569416 
0 128 1:0.853211 2:-0.772309 3:-0.747119 4:-0.779267 5:-0.505929 6:-0.976801 7:-0.991212 8:-0.274651 9:0.526568 10:-0.257209 11:-0.905115 13:-0.956522 14:-0.2 15:0.440023 16:-0.97 17:-0.994211 18:1 19:-0.454545 20:-0.978873 21:-0.953626 23:-0.671025 24:-0.909091 25:-0.967742 26:-0.97541 27:-1 28:-1 29:-1 30:-0.714286 31:-0.867108 32:-0.875 33:-0.796875 34:0.74 35:-1 36:-1 37:-1 38:-1 39:-0.75 40:-0.74 41:0.2 42:-0.75 43:0.747368 44:-1 45:-0.973333 46:-0.44 47:-0.96 48:0.333333 49:-1 50:-1 51:-0.938959 52:-0.569416 
0 128 1:0.853211 2:-0.772309 3:-0.747119 4:-0.775629 5:-0.459816 6:-0.953602 7:-0.980785 8:-0.274651 9:0.551769 10:-0.187696 11:-0.802045 13:-0.913043 14:-0.2 15:0.429253 16:-0.9425 17:-0.994211 18:1 19:-0.454545 20:-0.978873 21:-0.90316 23:-0.316481 24:-0.909091 25:-0.967742 26:-0.97541 27:-1 28:-1 29:-1 30:-0.714286 31:-0.867108 32:-0.875 33:-0.609375 34:0.8 35:-1 36:-1 37:-1 38:-1 39:-0.625 40:-0.8 41:0.2 42:-0.9375 43:0.705263 44:-1 45:-0.866667 46:-0.52 47:-0.98 48:-0.333333 49:-1 50:-1 51:-0.938959 52:-0.569416 
0 128 1:0.853211 2:-0.772309 3:-0.747119 4:-0.766057 5:-0.524374 6:-0.9884 7:-0.99577 8:-0.274651 9:0.618085 10:-0.285015 11:-0.956659 13:-0.978261 14:-0.2 15:0.687527 16:-0.985 17:-0.994211 18:1 19:-0.454545 20:-0.992958 21:-0.97454 23:-0.228998 24:-0.909091 25:-0.967742 26:-0.97541 27:-1 28:-1 29:-1 30:-0.714286 31:-0.867108 32:-1 33:-0.890625 34:1 35:-1 36:-1 37:-1 38:-1 39:-1 40:-1 41:0.2 42:-0.9375 43:0.747368 44:-1 45:-0.92 46:-0.48 47:-1 48:-0.333333 49:-1 50:-1 51:-0.938959 52:-0.569416 
0 128 1:0.853211 2:-0.772309 3:-0.747119 4:-0.747296 5:-0.467721 6:-0.953602 7:-0.981066 8:-0.274651 9:0.748063 10:-0.199612 11:-0.802045 13:-0.913043 14:-0.2 15:0.54133 16:-0.915 17:-0.994211 18:1 19:-0.454545 20:-0.992958 21:-0.893612 23:0.518047 24:-0.909091 25:-0.967742 26:-0.97541 27:-1 28:-1 29:-1 30:-0.714286 31:-0.867108 32:-0.625 33:-0.453125 34:0.96 35:-1 36:-1 37:-1 38:-1 39:-0.875 40:-0.96 42:-0.8125 43:0.684211 44:-1 45:-0.92 46:-0.36 47:-1 48:0.333333 49:-1 50:-1 51:-0.938959 52:-0.569416 
1.395085045679551 0 1:0.853211 2:-0.779452 3:-0.816949 4:-0.989279 5:-0.524374 6:-0.990842 7:-0.996661 8:-0.481081 9:-0.92657 10:-0.285015 11:-0.966501 13:-0.978261 14:-0.2 15:0.687527 16:-0.9775 17:-0.997106 18:-1 19:-0.727273 20:-0.985915 21:-0.969993 23:-0.615297 24:-0.727273 25:-0.793548 26:-0.745902 27:-0.906977 28:-1 29:-0.814815 30:-0.302857 31:-0.397825 32:-1 33:-0.828125 34:0.58 35:-1 36:-1 37:-1 38:-1 39:-0.625 40:-0.58 42:-0.84375 43:0.621053 44:-1 45:-1 46:-0.28 47:-0.9 48:1 49:-1 50:-1 51:-0.487773 52:-0.690141 
128 0 1:0.853211 2:-0.953718 3:-0.829831 4:-0.997894 5:-0.936759 6:-0.9884 7:-0.999438 8:-0.51916 9:-0.965952 10:-0.906669 11:-0.874779 13:-0.978261 14:-0.2 15:0.687527 16:-1 17:-0.849493 18:-1 19:-0.227273 20:-1 21:-0.998636 23:-0.787862 24:-0.363636 25:-0.912903 26:-0.934426 27:-0.953488 28:-1 29:-0.888889 30:-0.84 31:-0.845948 32:-1 33:-0.984375 34:1 35:-1 36:-1 37:-1 38:-1 39:-1 40:-1 41:-0.2 42:-0.96875 43:0.684211 44:-1 45:-1 46:-0.2 47:-1 48:-1 49:-1 50:-1 51:-0.327818 52:-0.589537 
128 0 1:0.853211 2:-0.953718 3:-0.776949 4:-0.997894 5:-0.807642 6:-0.9884 7:-0.998289 8:-0.362834 9:-0.965952 10:-0.71203 11:-0.874779 13:-0.978261 14:-0.2 15:0.687527 16:-0.9975 17:-0.982634 18:-1 19:-0.227273 20:-1 21:-0.992271 23:-0.302353 24:-0.363636 25:-0.912903 26:-0.934426 27:-0.953488 28:-1 29:-0.888889 30:-0.84 31:-0.845948 32:-1 33:-0.96875 34:1 35:-1 36:-1 37:-1 38:-1 39:-1 40:-1 41:0.8 42:-0.9375 43:0.894737 44:-1 45:-1 46:-0.6 47:-1 48:-1 49:-1 50:-1 51:-0.327818 52:-0.589537 
128 0 1:0.853211 2:-0.953718 3:-0.657627 4:-0.997894 5:-0.766798 6:-0.9884 7:-0.997926 8:-0.010101 9:-0.965952 10:-0.65046 11:-0.874779 13:-0.978261 14:-0.2 15:0.687527 16:-0.9925 17:-0.982634 18:-1 19:-0.227273 20:-1 21:-0.990907 23:-0.282646 24:-0.363636 25:-0.912903 26:-0.934426 27:-0.953488 28:-1 29:-0.888889 30:-0.84 31:-0.845948 32:-1 33:-0.953125 34:0.5 35:-1 36:-1 37:-1 38:-1 39:-0.875 40:-0.5 42:-0.9375 43:0.6 44:-1 45:-1 46:-0.24 47:-0.92 48:-1 49:-1 50:-1 51:-0.327818 52:-0.589537 
128 0 1:0.853211 2:-0.953718 3:-0.520678 4:-0.997894 5:-0.827404 6:-0.9884 7:-0.998465 8:0.394741 9:-0.965952 10:-0.741822 11:-0.874779 13:-0.978261 14:-0.2 15:0.687527 16:-0.9975 17:-0.982634 18:-1 19:-0.227273 20:-1 21:-0.993635 23:-0.383036 24:-0.363636 25:-0.912903 26:-0.934426 27:-0.953488 28:-1 29:-0.888889 30:-0.84 31:-0.845948 32:-1 33:-0.96875 34:1 35:-1 36:-1 37:-1 38:-1 39:-1 40:-1 41:0.4 42:-0.9375 43:0.852632 44:-1 45:-1 46:-0.52 47:-1 48:-1 49:-1 50:-1 51:-0.327818 52:-0.589537 
128 0 1:0.853211 2:-0.953718 3:-0.989153 4:-0.987078 5:-0.924901 6:-0.9884 7:-0.999332 8:-0.990139 9:-0.771966 10:-0.888793 11:-0.874779 13:-0.978261 14:-0.2 15:0.687527 16:-1 17:-0.890014 18:-1 19:-0.5 20:-1 21:-0.997727 23:-0.697696 24:-0.363636 25:-0.912903 26:-0.934426 27:-0.953488 28:-1 29:-0.888889 30:-0.84 31:-0.845948 32:-1 33:-0.984375 34:1 35:-1 36:-1 37:-1 38:-1 39:-1 40:-1 41:0.2 42:-0.96875 43:0.810526 44:-1 45:-1 46:-0.44 47:-1 48:-1 49:-1 50:-1 51:-0.327818 52:-0.589537 
22.43882169045472 0 1:0.853211 2:-0.953718 3:-0.992542 4:-0.976261 5:-0.857708 6:-0.9884 7:-0.998735 8:-1 9:-0.577978 10:-0.787502 11:-0.874779 13:-0.978261 14:-0.2 15:0.687527 16:-0.9975 17:-0.97974 18:-1 19:0.136364 20:-1 21:-0.994999 23:-0.47424 24:-0.363636 25:-0.912903 26:-0.934426 27:-0.953488 28:-1 29:-0.888889 30:-0.84 31:-0.845948 32:-1 33:-0.96875 34:1 35:-1 36:-1 37:-1 38:-1 39:-1 40:-1 42:-0.9375 43:0.768421 44:-1 45:-1 46:-0.36 47:-1 48:-1 49:-1 50:-1 51:-0.327818 52:-0.589537 
128 0 1:0.853211 2:-0.953718 3:-0.832542 4:-0.989471 5:-0.827404 6:-0.9884 7:-0.998465 8:-0.527176 9:-0.814883 10:-0.741822 11:-0.874779 13:-0.978261 14:-0.2 15:0.687527 16:-0.9975 17:-0.890014 18:-1 19:-0.5 20:-1 21:-0.993635 23:-0.383036 24:-0.363636 25:-0.912903 26:-0.934426 27:-0.953488 28:-1 29:-0.888889 30:-0.84 31:-0.845948 32:-1 33:-0.90625 34:0.34 35:-1 36:-1 37:-1 38:-1 39:-0.625 40:-0.34 41:0.4 42:-0.9375 43:0.642105 44:-1 45:-1 46:-0.32 47:-0.9 48:1 49:-1 50:-1 51:-0.327818 52:-0.589537 
128 0 1:0.853211 2:-0.953718 3:-0.743729 4:-0.989471 5:-0.97365 6:-0.9884 7:-0.999766 8:-0.26463 9:-0.814883 10:-0.96228 11:-0.874779 13:-0.978261 14:-0.2 15:0.687527 16:-1 17:-0.997106 18:-1 19:-0.545455 20:-0.978873 21:-0.999091 23:-0.99115 24:-0.363636 25:-0.912903 26:-0.934426 27:-0.953488 28:-1 29:-0.888889 30:-0.84 31:-0.845948 32:-1 33:-0.90625 34:0.34 35:-1 36:-1 37:-1 38:-1 39:-0.625 40:-0.34 41:0.4 42:-0.9375 43:0.642105 44:-1 45:-1 46:-0.32 47:-0.9 48:1 49:-1 50:-1 51:-0.327818 52:-0.589537 
128 0 1:0.853211 2:-0.953718 3:-0.730169 4:-0.989471 5:-0.820817 6:-0.9884 7:-0.998407 8:-0.224547 9:-0.814883 10:-0.73189 11:-0.874779 13:-0.978261 14:-0.2 15:0.687527 16:-0.9975 17:-0.997106 18:-1 19:-0.5 20:-1 21:-0.993635 23:-0.383036 24:-0.363636 25:-0.912903 26:-0.934426 27:-0.953488 28:-1 29:-0.888889 30:-0.84 31:-0.845948 32:-1 33:-0.90625 34:0.34 35:-1 36:-1 37:-1 38:-1 39:-0.625 40:-0.34 41:0.4 42:-0.9375 43:0.642105 44:-1 45:-1 46:-0.32 47:-0.9 48:1 49:-1 50:-1 51:-0.327818 52:-0.589537 
89.21344263921624 0 1:0.853211 2:-0.953718 3:-0.624407 4:-0.989471 5:-0.932806 6:-0.9884 7:-0.999402 8:0.088103 9:-0.814883 10:-0.900711 11:-0.874779 13:-0.978261 14:-0.2 15:0.687527 16:-1 17:-0.997106 18:-1 19:-0.5 20:-1 21:-0.997727 23:-0.697696 24:-0.363636 25:-0.912903 26:-0.934426 27:-0.953488 28:-1 29:-0.888889 30:-0.84 31:-0.845948 32:-1 33:-0.90625 34:0.34 35:-1 36:-1 37:-1 38:-1 39:-0.625 40:-0.34 41:0.4 42:-0.9375 43:0.642105 44:-1 45:-1 46:-0.32 47:-0.9 48:1 49:-1 50:-1 51:-0.327818 52:-0.589537 
128 128 1:0.853211 2:-0.953718 3:-0.832542 4:-0.968699 5:-0.677207 6:-0.990842 7:-0.997734 8:-0.527176 9:-0.442358 10:-0.515403 11:-0.90287 13:-0.978261 14:-0.2 15:0.687527 16:-0.99 17:-0.988423 18:1 19:0.181818 20:-1 21:-0.984087 23:0.0515336 24:-0.363636 25:-0.912903 26:-0.934426 27:-0.953488 28:-1 29:-0.888889 30:-0.84 31:-0.845948 32:-1 33:-0.90625 34:0.72 35:-1 36:-1 37:-1 38:-1 39:-0.875 40:-0.72 42:-0.875 43:0.768421 44:-1 45:-1 46:-0.48 47:-0.96 48:-1 49:-1 50:-1 51:-0.327818 52:-0.589537 
128 128 1:0.853211 2:-0.953718 3:-0.832542 4:-0.953097 5:-0.673254 6:-0.990842 7:-0.997706 8:-0.527176 9:-0.162536 10:-0.509445 11:-0.90287 13:-0.978261 14:-0.2 15:0.687527 16:-0.99 17:-0.982634 18:1 19:0.181818 20:-1 21:-0.984087 23:0.0515336 24:-0.363636 25:-0.912903 26:-0.934426 27:-0.953488 28:-1 29:-0.888889 30:-0.84 31:-0.845948 32:-1 33:-0.90625 34:0.72 35:-1 36:-1 37:-1 38:-1 39:-0.875 40:-0.72 42:-0.875 43:0.768421 44:-1 45:-1 46:-0.48 47:-0.96 48:-1 49:-1 50:-1 51:-0.327818 52:-0.589537 
128 0 1:0.853211 2:-0.953718 3:-0.832542 4:-0.932517 5:-0.794466 6:-0.989621 7:-0.998365 8:-0.527176 9:0.206555 10:-0.692168 11:-0.888825 13:-0.978261 14:-0.2 15:0.687527 16:-0.965 17:-0.994211 18:1 20:-0.911972 21:-0.986815 23:-0.970764 24:-0.363636 25:-0.912903 26:-0.934426 27:-0.953488 28:-1 29:-0.888889 30:-0.84 31:-0.845948 32:-1 33:-0.96875 34:0.34 35:-0.875 36:-0.34 37:-1 38:-1 39:-1 40:-1 42:-0.9375 43:0.242105 44:-0.595238 45:-0.866667 46:-0.32 47:-1 48:-1 49:1 50:-1 51:-0.327818 52:-0.589537 
128 0 1:0.853211 2:-0.953718 3:-0.832542 4:-0.930889 5:-0.715415 6:-0.989621 7:-0.997736 8:-0.527176 9:0.235738 10:-0.573001 11:-0.888825 13:-0.978261 14:-0.2 15:0.687527 16:-0.98 17:-0.994211 18:1 20:-0.911972 21:-0.984997 23:-0.966864 24:-0.363636 25:-0.912903 26:-0.934426 27:-0.953488 28:-1 29:-0.888889 30:-0.84 31:-0.845948 32:-1 33:-0.9375 34:0.34 35:-0.75 36:-0.34 37:-1 38:-1 39:-1 40:-1 42:-0.90625 43:0.326316 44:-0.690476 45:-0.84 46:-0.36 47:-1 48:-1 49:1 50:-1 51:-0.327818 52:-0.589537 
128 128 1:0.853211 2:-0.953718 3:-0.832542 4:-0.929262 5:-0.516469 6:-0.989621 7:-0.996153 8:-0.527176 9:0.264924 10:-0.273099 11:-0.888825 13:-0.978261 14:-0.2 15:0.687527 16:-0.975 17:-0.994211 18:1 20:-0.911972 21:-0.97454 23:-0.944438 24:-0.363636 25:-0.912903 26:-0.934426 27:-0.953488 28:-1 29:-0.888889 30:-0.84 31:-0.845948 32:-1 33:-0.890625 34:0.56 35:-0.875 36:-0.78 37:-1 38:-1 39:-0.875 40:-0.78 41:0.2 42:-0.84375 43:0.684211 44:-0.928571 45:-0.973333 46:-0.48 47:-0.98 48:-1 49:-1 50:-1 51:-0.327818 52:-0.589537 
128 128 1:0.853211 2:-0.953718 3:-0.832542 4:-0.926103 5:-0.594203 6:-0.989621 7:-0.996771 8:-0.527176 9:0.321573 10:-0.390278 11:-0.888825 13:-0.978261 14:-0.2 15:0.687527 16:-0.99 17:-0.973951 18:1 19:0.0454545 20:-1 21:-0.983633 23:0.0653033 24:-0.363636 25:-0.912903 26:-0.934426 27:-0.953488 28:-1 29:-0.888889 30:-0.84 31:-0.845948 32:-1 33:-0.90625 34:0.72 35:-1 36:-1 37:-1 38:-1 39:-0.875 40:-0.72 42:-0.875 43:0.789474 44:-1 45:-1 46:-0.48 47:-0.96 48:-1 49:-1 50:-1 51:-0.327818 52:-0.589537 
128 128 1:0.853211 2:-0.953718 3:-0.832542 4:-0.908299 5:-0.603426 6:-0.989621 7:-0.996845 8:-0.527176 9:0.64088 10:-0.404182 11:-0.888825 13:-0.978261 14:-0.2 15:0.687527 16:-0.99 17:-0.982634 18:1 19:0.0454545 20:-1 21:-0.984087 23:0.0515336 24:-0.363636 25:-0.912903 26:-0.934426 27:-0.953488 28:-1 29:-0.888889 30:-0.84 31:-0.845948 32:-1 33:-0.90625 34:0.72 35:-1 36:-1 37:-1 38:-1 39:-0.875 40:-0.72 42:-0.875 43:0.768421 44:-1 45:-1 46:-0.48 47:-0.96 48:-1 49:-1 50:-1 51:-0.327818 52:-0.589537 
24.60697518695897 0 1:0.853211 2:-0.953718 3:-0.934915 4:-0.896047 5:-0.870883 6:-0.9884 7:-0.998852 8:-0.829806 9:0.860618 10:-0.807363 11:-0.874779 13:-0.978261 14:-0.2 15:0.687527 16:-0.995 17:-0.846599 18:-1 19:-0.727273 20:-1 21:-0.995454 23:-0.507346 24:-0.363636 25:-0.912903 26:-0.934426 27:-0.953488 28:-1 29:-0.888889 30:-0.84 31:-0.845948 32:-1 33:-0.953125 34:1 35:-1 36:-1 37:-1 38:-1 39:-1 40:-1 41:-0.4 42:-0.90625 43:0.578947 44:-1 45:-1 47:-1 48:-1 49:-1 50:-1 51:-0.327818 52:-0.589537 
128 0 1:0.853211 2:-0.953718 3:-0.757288 4:-0.890303 5:-0.805007 6:-0.9884 7:-0.998266 8:-0.304713 9:0.96362 10:-0.708058 11:-0.874779 13:-0.978261 14:-0.2 15:0.687527 16:-0.9975 17:-0.988423 18:-1 19:-0.727273 20:-1 21:-0.992726 23:-0.328193 24:-0.363636 25:-0.912903 26:-0.934426 27:-0.953488 28:-1 29:-0.888889 30:-0.84 31:-0.845948 32:-1 33:-0.921875 34:0.68 35:-1 36:-1 37:-1 38:-1 39:-0.875 40:-0.68 42:-0.90625 43:0.663158 44:-1 45:-1 46:-0.28 47:-0.94 48:0.333333 49:-1 50:-1 51:-0.327818 52:-0.589537 
128 0 1:0.853211 2:-0.953718 3:-0.656949 4:-0.890303 5:-0.953887 6:-0.9884 7:-0.99959 8:-0.00809697 9:0.96362 10:-0.932488 11:-0.874779 13:-0.978261 14:-0.2 15:0.687527 16:-1 17:-0.997106 18:-1 19:-0.772727 20:-0.957746 21:-0.986361 23:-0.932103 24:-0.363636 25:-0.912903 26:-0.934426 27:-0.953488 28:-1 29:-0.888889 30:-0.84 31:-0.845948 32:-1 33:-0.921875 34:0.68 35:-1 36:-1 37:-1 38:-1 39:-0.875 40:-0.68 42:-0.90625 43:0.663158 44:-1 45:-1 46:-0.28 47:-0.94 48:0.333333 49:-1 50:-1 51:-0.327818 52:-0.589537 
128 0 1:0.853211 2:-0.953718 3:-0.63322 4:-0.890303 5:-0.855072 6:-0.9884 7:-0.998711 8:0.0620485 9:0.96362 10:-0.78353 11:-0.874779 13:-0.978261 14:-0.2 15:0.687527 16:-0.995 17:-0.997106 18:-1 19:-0.727273 20:-1 21:-0.994999 23:-0.47424 24:-0.363636 25:-0.912903 26:-0.934426 27:-0.953488 28:-1 29:-0.888889 30:-0.84 31:-0.845948 32:-1 33:-0.921875 34:0.68 35:-1 36:-1 37:-1 38:-1 39:-0.875 40:-0.68 42:-0.90625 43:0.663158 44:-1 45:-1 46:-0.28 47:-0.94 48:0.333333 49:-1 50:-1 51:-0.327818 52:-0.589537 
128 128 1:0.486239 2:-0.868004 3:-0.976949 4:-0.894515 5:-0.546772 6:-0.989011 7:-0.996182 8:-0.951331 9:0.0776505 10:-0.290547 11:-0.935992 13:-0.978261 14:-0.2 15:0.687527 16:-0.9775 17:-0.973951 18:1 19:-0.818182 20:-1 21:-0.979995 23:0.148036 24:-0.818182 25:-0.816129 26:-0.852459 27:-0.953488 28:-1 29:-1 30:-0.577143 31:-0.874323 32:-0.875 33:-0.84375 34:0.54 35:-0.875 36:-0.86 37:-1 38:-1 39:-0.75 40:-0.7 42:-0.78125 43:0.515789 44:-0.880952 45:-0.946667 46:-0.36 47:-0.96 48:-0.333333 49:1 50:-1 51:-0.402096 52:-0.806841 
0 128 1:0.486239 2:-0.868004 3:-0.743729 4:-0.894515 5:-0.753623 6:-0.989011 7:-0.997924 8:-0.233408 9:0.0776505 10:-0.615251 11:-0.935992 13:-0.978261 14:-0.2 15:0.687527 16:-0.99 17:-0.997106 18:1 19:-0.863636 20:-0.996479 21:-0.988634 23:-0.819319 24:-0.818182 25:-0.816129 26:-0.852459 27:-0.953488 28:-1 29:-1 30:-0.577143 31:-0.874323 32:-0.875 33:-0.84375 34:0.54 35:-0.875 36:-0.86 37:-1 38:-1 39:-0.75 40:-0.7 42:-0.78125 43:0.515789 44:-0.880952 45:-0.946667 46:-0.36 47:-0.96 48:-0.333333 49:1 50:-1 51:-0.402096 52:-0.806841 
128 0 1:0.486239 2:-0.868004 3:-0.976949 4:-0.890973 5:-0.781291 6:-0.989011 7:-0.998157 8:-0.951331 9:0.113934 10:-0.658683 11:-0.935992 13:-0.978261 14:-0.2 15:0.687527 16:-0.9875 17:-0.991317 18:1 19:-0.818182 20:-1 21:-0.989543 23:-0.166028 24:-0.818182 25:-0.816129 26:-0.852459 27:-0.953488 28:-1 29:-1 30:-0.577143 31:-0.874323 32:-0.875 33:-0.890625 34:0.28 35:-0.875 36:-0.82 37:-0.818182 38:-0.82 39:-0.75 40:-0.64 41:0.2 42:-0.875 43:0.473684 44:-0.809524 45:-0.92 46:-0.4 47:-0.94 48:-0.333333 49:1 50:-1 51:-0.402096 52:-0.806841 
128 0 1:0.486239 2:-0.868004 3:-0.847458 4:-0.887623 5:-0.633729 6:-0.984127 7:-0.995543 8:-0.552717 9:0.148256 10:-0.427047 11:-0.903911 13:-0.978261 14:-0.2 15:0.687527 16:-0.9925 17:-0.985528 18:-1 19:-0.818182 20:-1 21:-0.989998 23:-0.186756 24:-0.818182 25:-0.816129 26:-0.852459 27:-0.953488 28:-1 29:-1 30:-0.577143 31:-0.874323 32:-1 33:-0.9375 34:1 35:-1 36:-1 37:-1 38:-1 39:-1 40:-1 42:-0.875 43:0.768421 44:-1 45:-1 46:-0.36 47:-1 48:-1 49:-1 50:-1 51:-0.402096 52:-0.806841 
128 0 1:0.486239 2:-0.868004 3:-0.850169 4:-0.873361 5:-0.624506 6:-0.985958 7:-0.995958 8:-0.561065 9:0.294367 10:-0.412571 11:-0.91594 13:-0.978261 14:-0.2 15:0.687527 16:-0.9875 17:-0.947902 18:-1 19:-0.727273 20:-1 21:-0.98727 23:-0.0722607 24:-0.818182 25:-0.816129 26:-0.852459 27:-0.953488 28:-1 29:-1 30:-0.577143 31:-0.874323 32:-1 33:-0.90625 34:1 35:-1 36:-1 37:-1 38:-1 39:-1 40:-1 41:-0.2 42:-0.8125 43:0.684211 44:-1 45:-1 46:-0.2 47:-1 48:-1 49:-1 50:-1 51:-0.402096 52:-0.806841 
128 0 1:0.486239 2:-0.868004 3:-0.877966 4:-0.86599 5:-0.516469 6:-0.985958 7:-0.994795 8:-0.646632 9:0.369873 10:-0.242979 11:-0.91594 13:-0.978261 14:-0.2 15:0.687527 16:-0.99 17:-0.991317 18:-1 19:-0.818182 20:-1 21:-0.984997 23:0.00771925 24:-0.818182 25:-0.816129 26:-0.852459 27:-0.953488 28:-1 29:-1 30:-0.577143 31:-0.874323 32:-0.875 33:-0.921875 34:1 35:-1 36:-1 37:-1 38:-1 39:-1 40:-1 41:0.2 42:-0.84375 43:0.747368 44:-1 45:-0.946667 46:-0.44 47:-1 48:-1 49:-1 50:-1 51:-0.402096 52:-0.806841 
0 41.89517476603755 1:0.486239 2:-0.868004 3:-0.490169 4:-0.873552 5:-0.645586 6:-0.982906 7:-0.995355 8:0.547123 9:0.292406 10:-0.44566 11:-0.895888 13:-0.956522 14:-0.2 15:0.49619 16:-0.965 17:-0.997106 18:-1 19:-0.863636 20:-0.996479 21:-0.957718 23:-0.154238 24:-0.818182 25:-0.816129 26:-0.852459 27:-0.953488 28:-1 29:-1 30:-0.577143 31:-0.874323 32:-0.75 33:-0.75 34:1 35:-1 36:-1 37:-1 38:-1 39:-1 40:-1 42:-0.75 43:0.747368 44:-1 45:-0.973333 46:-0.4 47:-1 48:-0.333333 49:-1 50:-1 51:-0.402096 52:-0.806841 
0 128 1:0.853211 2:-0.419472 3:-0.709831 4:-0.999617 5:-0.769433 6:-0.992063 7:-0.998597 8:-0.164422 9:-1 10:-0.654432 11:-0.992117 13:-0.978261 14:-0.2 15:0.687527 16:-0.985 17:-0.988423 18:-1 19:-0.772727 20:-0.96831 21:-0.984997 23:-0.948686 24:-0.363636 25:-0.522581 26:-0.811475 27:-0.860465 28:-1 29:-1 30:0.268571 31:-0.629279 32:-0.75 33:-0.046875 34:0.76 35:-0.875 36:-0.98 37:-1 38:-1 40:-0.78 41:0.2 42:-0.84375 43:0.705263 44:-1 45:-0.973333 46:-0.4 47:-0.98 48:1 49:1 50:-1 51:0.537783 52:-0.336016 
0 128 1:0.853211 2:-0.419472 3:-0.557288 4:-0.999617 5:-0.657444 6:-0.992063 7:-0.997916 8:0.286515 9:-1 10:-0.485612 11:-0.992117 13:-0.978261 14:-0.2 15:0.687527 16:-0.9875 17:-0.994211 18:-1 19:-0.772727 20:-0.96831 21:-0.980905 23:-0.935098 24:-0.363636 25:-0.522581 26:-0.811475 27:-0.860465 28:-1 29:-1 30:0.268571 31:-0.629279 32:-0.75 33:-0.046875 34:0.76 35:-0.875 36:-0.98 37:-1 38:-1 40:-0.78 41:0.2 42:-0.84375 43:0.705263 44:-1 45:-0.973333 46:-0.4 47:-0.98 48:1 49:1 50:-1 51:0.537783 52:-0.336016 
0 128 1:0.853211 2:-0.419472 3:-0.347119 4:-0.999617 5:-0.637681 6:-0.992063 7:-0.997795 8:0.907808 9:-1 10:-0.455822 11:-0.992117 13:-0.978261 14:-0.2 15:0.687527 16:-0.9825 17:-0.994211 18:-1 19:-0.772727 20:-0.96831 21:-0.975904 23:-0.918492 24:-0.363636 25:-0.522581 26:-0.811475 27:-0.860465 28:-1 29:-1 30:0.268571 31:-0.629279 32:-0.75 33:-0.046875 34:0.76 35:-0.875 36:-0.98 37:-1 38:-1 40:-0.78 41:0.2 42:-0.84375 43:0.705263 44:-1 45:-0.973333 46:-0.4 47:-0.98 48:1 49:1 50:-1 51:0.537783 52:-0.336016 
0 128 1:0.853211 2:-0.419472 3:-0.12678 4:-0.999617 5:-0.674572 6:-0.992063 7:-0.99802 8:1 9:-1 10:-0.511431 11:-0.992117 13:-0.978261 14:-0.2 15:0.687527 16:-0.9825 17:-0.994211 18:-1 19:-0.772727 20:-0.96831 21:-0.979995 23:-0.932079 24:-0.363636 25:-0.522581 26:-0.811475 27:-0.860465 28:-1 29:-1 30:0.268571 31:-0.629279 32:-0.75 33:-0.046875 34:0.76 35:-0.875 36:-0.98 37:-1 38:-1 40:-0.78 41:0.2 42:-0.84375 43:0.705263 44:-1 45:-0.973333 46:-0.4 47:-0.98 48:1 49:1 50:-1 51:0.537783 52:-0.336016 
0 128 1:0.853211 2:-0.419472 3:0.0745763 4:-0.999617 5:-0.693017 6:-0.992063 7:-0.998132 8:1 9:-1 10:-0.539237 11:-0.992117 13:-0.978261 14:-0.2 15:0.687527 16:-0.985 17:-0.994211 18:-1 19:-0.772727 20:-0.96831 21:-0.981359 23:-0.936607 24:-0.363636 25:-0.522581 26:-0.811475 27:-0.860465 28:-1 29:-1 30:0.268571 31:-0.629279 32:-0.75 33:-0.046875 34:0.76 35:-0.875 36:-0.98 37:-1 38:-1 40:-0.78 41:0.2 42:-0.84375 43:0.705263 44:-1 45:-0.973333 46:-0.4 47:-0.98 48:1 49:1 50:-1 51:0.537783 52:-0.336016 
0 128 1:0.853211 2:-0.419472 3:0.266441 4:-0.999617 5:-0.715415 6:-0.992063 7:-0.998268 8:1 9:-1 10:-0.573001 11:-0.992117 13:-0.978261 14:-0.2 15:0.687527 16:-0.985 17:-0.994211 18:-1 19:-0.772727 20:-0.96831 21:-0.983178 23:-0.942648 24:-0.363636 25:-0.522581 26:-0.811475 27:-0.860465 28:-1 29:-1 30:0.268571 31:-0.629279 32:-0.75 33:-0.046875 34:0.76 35:-0.875 36:-0.98 37:-1 38:-1 40:-0.78 41:0.2 42:-0.84375 43:0.705263 44:-1 45:-0.973333 46:-0.4 47:-0.98 48:1 49:1 50:-1 51:0.537783 52:-0.336016 
0 13.90360353108527 1:0.853211 2:-0.419472 3:0.44678 4:-0.999617 5:-0.635046 6:-0.992063 7:-0.997779 8:1 9:-1 10:-0.451848 11:-0.992117 13:-0.978261 14:-0.2 15:0.687527 16:-0.98 17:-0.994211 18:-1 19:-0.772727 20:-0.96831 21:-0.977268 23:-0.923021 24:-0.363636 25:-0.522581 26:-0.811475 27:-0.860465 28:-1 29:-1 30:0.268571 31:-0.629279 32:-0.75 33:-0.046875 34:0.76 35:-0.875 36:-0.98 37:-1 38:-1 40:-0.78 41:0.2 42:-0.84375 43:0.705263 44:-1 45:-0.973333 46:-0.4 47:-0.98 48:1 49:1 50:-1 51:0.537783 52:-0.336016 
16.68346819966614 0 1:0.853211 2:-0.419472 3:-0.32 4:-0.999904 5:-0.992095 6:-0.98779 7:-0.999926 8:0.987976 9:-1 10:-0.990086 11:-0.983463 13:-0.978261 14:-0.2 15:0.687527 16:-1 17:-0.988423 18:-1 19:-0.863636 20:-0.992958 21:-1 23:-0.998944 24:-0.363636 25:-0.522581 26:-0.811475 27:-0.860465 28:-1 29:-1 30:0.268571 31:-0.629279 32:-1 33:-1 34:-1 35:-1 36:-1 37:-1 38:-1 39:-0.875 40:1 41:-1 42:-1 43:-1 44:-1 45:-1 46:1 48:-0.333333 49:-1 50:-1 51:0.537783 52:-0.336016 
0 128 1:0.853211 2:-0.419472 3:-0.709831 4:-0.997703 5:-0.769433 6:-0.992063 7:-0.998597 8:-0.164422 9:-0.99505 10:-0.654432 11:-0.992117 13:-0.978261 14:-0.2 15:0.687527 16:-0.985 17:-0.988423 18:-1 19:-0.727273 20:-1 21:-0.984997 23:0.00771925 24:-0.363636 25:-0.522581 26:-0.811475 27:-0.860465 28:-1 29:-1 30:0.268571 31:-0.629279 32:-0.75 33:-0.046875 34:0.76 35:-0.875 36:-0.98 37:-1 38:-1 40:-0.78 41:0.2 42:-0.84375 43:0.705263 44:-1 45:-0.973333 46:-0.4 47:-0.98 48:1 49:1 50:-1 51:0.537783 52:-0.336016 
0 128 1:0.853211 2:-0.419472 3:-0.557288 4:-0.997703 5:-0.657444 6:-0.992063 7:-0.997916 8:0.286515 9:-0.99505 10:-0.485612 11:-0.992117 13:-0.978261 14:-0.2 15:0.687527 16:-0.9875 17:-0.994211 18:-1 19:-0.727273 20:-1 21:-0.980905 23:0.125507 24:-0.363636 25:-0.522581 26:-0.811475 27:-0.860465 28:-1 29:-1 30:0.268571 31:-0.629279 32:-0.75 33:-0.046875 34:0.76 35:-0.875 36:-0.98 37:-1 38:-1 40:-0.78 41:0.2 42:-0.84375 43:0.705263 44:-1 45:-0.973333 46:-0.4 47:-0.98 48:1 49:1 50:-1 51:0.537783 52:-0.336016 
0 128 1:0.853211 2:-0.419472 3:-0.347119 4:-0.997703 5:-0.637681 6:-0.992063 7:-0.997795 8:0.907808 9:-0.99505 10:-0.455822 11:-0.992117 13:-0.978261 14:-0.2 15:0.687527 16:-0.9825 17:-0.994211 18:-1 19:-0.727273 20:-1 21:-0.975904 23:0.236749 24:-0.363636 25:-0.522581 26:-0.811475 27:-0.860465 28:-1 29:-1 30:0.268571 31:-0.629279 32:-0.75 33:-0.046875 34:0.76 35:-0.875 36:-0.98 37:-1 38:-1 40:-0.78 41:0.2 42:-0.84375 43:0.705263 44:-1 45:-0.973333 46:-0.4 47:-0.98 48:1 49:1 50:-1 51:0.537783 52:-0.336016 
0 105.9000695379684 1:0.853211 2:-0.419472 3:-0.985085 4:-0.991577 5:-0.963109 6:-0.991453 7:-0.999758 8:-0.978115 9:-0.975703 10:-0.94639 11:-0.990879 13:-0.978261 14:-0.2 15:0.687527 16:-1 17:-0.994211 18:-1 19:-0.727273 20:-1 21:-0.999091 23:-0.832061 24:-0.363636 25:-0.522581 26:-0.811475 27:-0.860465 28:-1 29:-1 30:0.268571 31:-0.629279 32:-1 33:-0.5625 34:0.94 35:-1 36:-1 37:-1 38:-1 39:-0.875 40:-0.94 41:0.2 42:-0.53125 43:0.789474 44:-1 45:-1 46:-0.44 47:-1 48:1 49:-1 50:-1 51:0.537783 52:-0.336016 
128 0 1:0.853211 2:-0.419472 3:-0.977627 4:-0.491816 5:-0.932806 6:-0.991453 7:-0.99956 8:-0.956069 9:0.602645 10:-0.900711 11:-0.990879 13:-0.978261 14:-0.2 15:0.687527 16:-0.9975 17:-0.994211 18:1 19:-0.772727 20:-0.992958 21:-0.995908 23:-0.882837 24:-0.363636 25:-0.522581 26:-0.811475 27:-0.860465 28:-1 29:-1 30:0.268571 31:-0.629279 32:-1 33:-0.984375 34:-0.34 35:-0.75 36:0.34 37:-1 38:-1 39:-1 40:-1 42:-0.90625 43:-0.0526316 44:-0.571429 45:-0.76 46:0.08 47:-1 48:-0.333333 49:1 50:-1 51:0.537783 52:-0.336016 
128 0 1:0.853211 2:-0.419472 3:-0.943051 4:-0.491816 5:-0.990777 6:-0.991453 7:-0.99994 8:-0.853857 9:0.602645 10:-0.9881 11:-0.990879 13:-0.978261 14:-0.2 15:0.687527 16:-1 17:-0.997106 18:1 19:-0.727273 20:-1 21:-1 23:-0.940737 24:-0.363636 25:-0.522581 26:-0.811475 27:-0.860465 28:-1 29:-1 30:0.268571 31:-0.629279 32:-1 33:-0.984375 34:-0.34 35:-0.75 36:0.34 37:-1 38:-1 39:-1 40:-1 42:-0.90625 43:-0.0526316 44:-0.571429 45:-0.76 46:0.08 47:-1 48:-0.333333 49:1 50:-1 51:0.537783 52:-0.336016 
0 128 1:0.853211 2:-0.419472 3:-0.974237 4:-0.479468 5:-0.715415 6:-0.993284 7:-0.998535 8:-0.946048 9:0.641643 10:-0.573001 11:-0.994592 13:-0.978261 14:-0.2 15:0.687527 16:-0.9775 17:-0.988423 18:1 19:-0.727273 20:-0.978873 21:-0.972266 23:-0.799118 24:-0.363636 25:-0.522581 26:-0.811475 27:-0.860465 28:-1 29:-1 30:0.268571 31:-0.629279 32:-0.625 33:-0.640625 34:0.84 35:-0.75 36:-0.84 37:-1 38:-1 39:-1 40:-1 41:-0.2 42:-0.8125 43:0.621053 44:-0.97619 45:-0.92 46:-0.24 47:-1 48:1 49:1 50:-1 51:0.537783 52:-0.336016 
0 128 1:0.853211 2:-0.419472 3:-0.827797 4:-0.479468 5:-0.959157 6:-0.993284 7:-0.99979 8:-0.513147 9:0.641643 10:-0.940432 11:-0.994592 13:-0.978261 14:-0.2 15:0.687527 16:-0.9975 17:-0.997106 18:1 19:-0.681818 20:-1 21:-0.997272 23:-0.647309 24:-0.363636 25:-0.522581 26:-0.811475 27:-0.860465 28:-1 29:-1 30:0.268571 31:-0.629279 32:-0.625 33:-0.640625 34:0.84 35:-0.75 36:-0.84 37:-1 38:-1 39:-1 40:-1 41:-0.2 42:-0.8125 43:0.621053 44:-0.97619 45:-0.92 46:-0.24 47:-1 48:1 49:1 50:-1 51:0.537783 52:-0.336016 
0 128 1:0.853211 2:-0.419472 3:-0.80678 4:-0.479468 5:-0.926219 6:-0.993284 7:-0.99962 8:-0.451018 9:0.641643 10:-0.890779 11:-0.994592 13:-0.978261 14:-0.2 15:0.687527 16:-0.9625 17:-0.997106 18:1 19:-0.727273 20:-0.978873 21:-0.98727 23:-0.906047 24:-0.363636 25:-0.522581 26:-0.811475 27:-0.860465 28:-1 29:-1 30:0.268571 31:-0.629279 32:-0.625 33:-0.640625 34:0.84 35:-0.75 36:-0.84 37:-1 38:-1 39:-1 40:-1 41:-0.2 42:-0.8125 43:0.621053 44:-0.97619 45:-0.92 46:-0.24 47:-1 48:1 49:1 50:-1 51:0.537783 52:-0.336016 
0 128 1:0.853211 2:-0.419472 3:-0.768814 4:-0.479468 5:-0.913043 6:-0.993284 7:-0.999552 8:-0.338784 9:0.641643 10:-0.870919 11:-0.994592 13:-0.978261 14:-0.2 15:0.687527 16:-0.995 17:-0.997106 18:1 19:-0.681818 20:-1 21:-0.993635 23:-0.370182 24:-0.363636 25:-0.522581 26:-0.811475 27:-0.860465 28:-1 29:-1 30:0.268571 31:-0.629279 32:-0.625 33:-0.640625 34:0.84 35:-0.75 36:-0.84 37:-1 38:-1 39:-1 40:-1 41:-0.2 42:-0.8125 43:0.621053 44:-0.97619 45:-0.92 46:-0.24 47:-1 48:1 49:1 50:-1 51:0.537783 52:-0.336016 
0 128 1:0.853211 2:-0.419472 3:-0.724068 4:-0.479468 5:-0.980237 6:-0.993284 7:-0.999898 8:-0.206509 9:0.641643 10:-0.97221 11:-0.994592 13:-0.978261 14:-0.2 15:0.687527 16:-0.9975 17:-0.997106 18:1 19:-0.727273 20:-0.978873 21:-0.998181 23:-0.983814 24:-0.363636 25:-0.522581 26:-0.811475 27:-0.860465 28:-1 29:-1 30:0.268571 31:-0.629279 32:-0.625 33:-0.640625 34:0.84 35:-0.75 36:-0.84 37:-1 38:-1 39:-1 40:-1 41:-0.2 42:-0.8125 43:0.621053 44:-0.97619 45:-0.92 46:-0.24 47:-1 48:1 49:1 50:-1 51:0.537783 52:-0.336016 
0 128 1:0.853211 2:-0.419472 3:-0.713898 4:-0.479468 5:-0.947299 6:-0.993284 7:-0.999729 8:-0.176446 9:0.641643 10:-0.922557 11:-0.994592 13:-0.978261 14:-0.2 15:0.687527 16:-1 17:-0.997106 18:1 19:-0.681818 20:-1 21:-0.996363 23:-0.568129 24:-0.363636 25:-0.522581 26:-0.811475 27:-0.860465 28:-1 29:-1 30:0.268571 31:-0.629279 32:-0.625 33:-0.640625 34:0.84 35:-0.75 36:-0.84 37:-1 38:-1 39:-1 40:-1 41:-0.2 42:-0.8125 43:0.621053 44:-0.97619 45:-0.92 46:-0.24 47:-1 48:1 49:1 50:-1 51:0.537783 52:-0.336016 
0 128 1:0.853211 2:-0.419472 3:-0.68678 4:-0.479468 5:-0.895916 6:-0.993284 7:-0.999464 8:-0.0962808 9:0.641643 10:-0.845099 11:-0.994592 13:-0.978261 14:-0.2 15:0.687527 16:-0.9925 17:-0.997106 18:1 19:-0.727273 20:-0.978873 21:-0.984997 23:-0.889846 24:-0.363636 25:-0.522581 26:-0.811475 27:-0.860465 28:-1 29:-1 30:0.268571 31:-0.629279 32:-0.625 33:-0.640625 34:0.84 35:-0.75 36:-0.84 37:-1 38:-1 39:-1 40:-1 41:-0.2 42:-0.8125 43:0.621053 44:-0.97619 45:-0.92 46:-0.24 47:-1 48:1 49:1 50:-1 51:0.537783 52:-0.336016 
0 128 1:0.853211 2:-0.419472 3:-0.942373 4:-0.429693 5:-0.437418 6:-0.991453 7:-0.996314 8:-0.851853 9:0.798841 10:-0.153932 11:-0.990879 13:-0.978261 14:-0.2 15:0.687527 16:-0.975 17:-0.988423 18:-1 19:-0.454545 20:-1 21:-0.965901 23:0.392491 24:-0.363636 25:-0.522581 26:-0.811475 27:-0.860465 28:-1 29:-1 30:0.268571 31:-0.629279 32:-0.625 33:-0.78125 34:0.76 35:-1 36:-1 37:-1 38:-1 39:-0.75 40:-0.76 41:-0.2 42:-0.9375 43:0.6 44:-1 45:-0.813333 46:-0.44 47:-0.96 48:-1 49:-1 50:-1 51:0.537783 52:-0.336016 
24.23758245370722 0 1:0.0275229 2:0.117808 3:-0.941695 4:-0.993778 5:-0.889328 6:-0.991453 7:-0.999275 8:-0.833145 9:-0.991423 10:-0.818813 11:-0.99873 13:-0.978261 14:-0.2 15:0.687527 16:-1 17:-0.982634 18:-1 19:-0.545455 20:-1 21:-0.994544 23:-0.442545 24:-0.818182 25:-0.329032 26:0.409836 27:-0.953488 28:-1 29:0.777778 30:1 31:-0.0567321 32:-1 33:-0.984375 34:1 35:-1 36:-1 37:-1 38:-1 39:-1 40:-1 41:1 42:-0.96875 43:0.957895 44:-1 45:-1 46:-0.72 47:-1 48:-0.333333 49:-1 50:-1 51:1 52:1 
128 0 1:0.0275229 2:0.117808 3:-0.968814 4:-0.984397 5:-0.491436 6:-0.98779 7:-0.995239 8:-0.921172 9:-0.97522 10:-0.160202 11:-0.994674 13:-0.978261 14:-0.2 15:0.687527 16:-0.9925 17:-0.968162 18:-1 19:-0.954545 20:-1 21:-0.984997 23:0.0227607 24:-0.818182 25:-0.329032 26:0.409836 27:-0.953488 28:-1 29:0.777778 30:1 31:-0.0567321 32:-1 33:-0.9375 34:1 35:-1 36:-1 37:-1 38:-1 39:-1 40:-1 41:0.6 42:-0.9375 43:0.810526 44:-1 45:-0.946667 46:-0.56 47:-1 48:-1 49:-1 50:-1 51:1 52:1 
128 128 1:0.0275229 2:0.117808 3:-0.968814 4:-0.972337 5:-0.68643 6:-0.986569 7:-0.996771 8:-0.921172 9:-0.954391 10:-0.482965 11:-0.993321 13:-0.978261 14:-0.2 15:0.687527 16:-0.9925 17:-0.991317 18:1 19:-0.909091 20:-0.996479 21:-0.989543 23:-0.525788 24:-0.818182 25:-0.329032 26:0.409836 27:-0.953488 28:-1 29:0.777778 30:1 31:-0.0567321 32:-0.25 33:-0.328125 34:0.62 35:-1 36:-1 37:-1 38:-1 39:0.25 40:-0.62 41:-0.2 42:-0.9375 43:0.410526 44:-1 45:-0.68 46:-0.36 47:-0.92 48:1 49:-1 50:-1 51:1 52:1 
0 128 1:0.0275229 2:0.117808 3:-0.807458 4:-0.973007 5:-0.98946 6:-0.9884 7:-0.999906 8:-0.397416 9:-0.955547 10:-0.984555 11:-0.995346 13:-0.978261 14:-0.2 15:0.687527 16:-1 17:-0.997106 18:1 19:-0.863636 20:-1 21:-1 23:-0.940737 24:-0.818182 25:-0.329032 26:0.409836 27:-0.953488 28:-1 29:0.777778 30:1 31:-0.0567321 32:-0.25 33:-0.328125 34:0.62 35:-1 36:-1 37:-1 38:-1 39:0.25 40:-0.62 41:-0.2 42:-0.9375 43:0.410526 44:-1 45:-0.68 46:-0.36 47:-0.92 48:1 49:-1 50:-1 51:1 52:1 
0 128 1:0.0275229 2:0.117808 3:-0.802034 4:-0.972337 5:-0.98419 6:-0.986569 7:-0.999837 8:-0.379812 9:-0.954391 10:-0.975832 11:-0.993321 13:-0.978261 14:-0.2 15:0.687527 16:-1 17:-0.994211 18:1 19:-0.954545 20:-0.929577 21:-0.999091 23:-0.996009 24:-0.818182 25:-0.329032 26:0.409836 27:-0.953488 28:-1 29:0.777778 30:1 31:-0.0567321 32:-0.25 33:-0.328125 34:0.62 35:-1 36:-1 37:-1 38:-1 39:0.25 40:-0.62 41:-0.2 42:-0.9375 43:0.410526 44:-1 45:-0.68 46:-0.36 47:-0.92 48:1 49:-1 50:-1 51:1 52:1 
0 128 1:0.0275229 2:0.117808 3:-0.793898 4:-0.972337 5:-0.777339 6:-0.986569 7:-0.997707 8:-0.353404 9:-0.954391 10:-0.633441 11:-0.993321 13:-0.978261 14:-0.2 15:0.687527 16:-0.995 17:-0.997106 18:1 19:-0.909091 20:-0.996479 21:-0.99318 23:-0.656957 24:-0.818182 25:-0.329032 26:0.409836 27:-0.953488 28:-1 29:0.777778 30:1 31:-0.0567321 32:-0.25 33:-0.328125 34:0.62 35:-1 36:-1 37:-1 38:-1 39:0.25 40:-0.62 41:-0.2 42:-0.9375 43:0.410526 44:-1 45:-0.68 46:-0.36 47:-0.92 48:1 49:-1 50:-1 51:1 52:1 
0 128 1:0.0275229 2:0.117808 3:-0.679322 4:-0.973007 5:-0.98946 6:-0.9884 7:-0.999906 8:0.0185071 9:-0.955547 10:-0.984555 11:-0.995346 13:-0.978261 14:-0.2 15:0.687527 16:-1 17:-0.997106 18:1 19:-0.863636 20:-1 21:-1 23:-0.940737 24:-0.818182 25:-0.329032 26:0.409836 27:-0.953488 28:-1 29:0.777778 30:1 31:-0.0567321 32:-0.25 33:-0.328125 34:0.62 35:-1 36:-1 37:-1 38:-1 39:0.25 40:-0.62 41:-0.2 42:-0.9375 43:0.410526 44:-1 45:-0.68 46:-0.36 47:-0.92 48:1 49:-1 50:-1 51:1 52:1 
0 128 1:0.0275229 2:0.117808 3:-0.673898 4:-0.972337 5:-0.992095 6:-0.986569 7:-0.999919 8:0.0361131 9:-0.954391 10:-0.988917 11:-0.993321 13:-0.978261 14:-0.2 15:0.687527 16:-1 17:-0.994211 18:1 19:-0.954545 20:-0.929577 21:-0.999091 23:-0.996009 24:-0.818182 25:-0.329032 26:0.409836 27:-0.953488 28:-1 29:0.777778 30:1 31:-0.0567321 32:-0.25 33:-0.328125 34:0.62 35:-1 36:-1 37:-1 38:-1 39:0.25 40:-0.62 41:-0.2 42:-0.9375 43:0.410526 44:-1 45:-0.68 46:-0.36 47:-0.92 48:1 49:-1 50:-1 51:1 52:1 
0 128 1:0.0275229 2:0.117808 3:-0.968814 4:-0.969561 5:-0.649539 6:-0.986569 7:-0.996391 8:-0.921172 9:-0.949597 10:-0.421902 11:-0.993321 13:-0.978261 14:-0.2 15:0.687527 16:-0.99 17:-0.997106 18:1 19:-0.909091 20:-0.996479 21:-0.988634 23:-0.496148 24:-0.818182 25:-0.329032 26:0.409836 27:-0.953488 28:-1 29:0.777778 30:1 31:-0.0567321 32:-0.25 33:-0.328125 34:0.62 35:-1 36:-1 37:-1 38:-1 39:0.25 40:-0.62 41:-0.2 42:-0.9375 43:0.410526 44:-1 45:-0.68 46:-0.36 47:-0.92 48:1 49:-1 50:-1 51:1 52:1 
0 128 1:0.0275229 2:0.117808 3:-0.788475 4:-0.970231 5:-0.98946 6:-0.9884 7:-0.999906 8:-0.335798 9:-0.950753 10:-0.984555 11:-0.995346 13:-0.978261 14:-0.2 15:0.687527 16:-1 17:-0.997106 18:1 19:-0.863636 20:-1 21:-1 23:-0.940737 24:-0.818182 25:-0.329032 26:0.409836 27:-0.953488 28:-1 29:0.777778 30:1 31:-0.0567321 32:-0.25 33:-0.328125 34:0.62 35:-1 36:-1 37:-1 38:-1 39:0.25 40:-0.62 41:-0.2 42:-0.9375 43:0.410526 44:-1 45:-0.68 46:-0.36 47:-0.92 48:1 49:-1 50:-1 51:1 52:1 
0 128 1:0.0275229 2:0.117808 3:-0.783051 4:-0.969561 5:-0.98419 6:-0.986569 7:-0.999837 8:-0.318192 9:-0.949597 10:-0.975832 11:-0.993321 13:-0.978261 14:-0.2 15:0.687527 16:-1 17:-0.994211 18:1 19:-0.954545 20:-0.929577 21:-0.999091 23:-0.996009 24:-0.818182 25:-0.329032 26:0.409836 27:-0.953488 28:-1 29:0.777778 30:1 31:-0.0567321 32:-0.25 33:-0.328125 34:0.62 35:-1 36:-1 37:-1 38:-1 39:0.25 40:-0.62 41:-0.2 42:-0.9375 43:0.410526 44:-1 45:-0.68 46:-0.36 47:-0.92 48:1 49:-1 50:-1 51:1 52:1 
0 128 1:0.0275229 2:0.117808 3:-0.774915 4:-0.969561 5:-0.664032 6:-0.986569 7:-0.99654 8:-0.291786 9:-0.949597 10:-0.44589 11:-0.993321 13:-0.978261 14:-0.2 15:0.687527 16:-0.99 17:-0.997106 18:1 19:-0.909091 20:-0.996479 21:-0.989088 23:-0.510825 24:-0.818182 25:-0.329032 26:0.409836 27:-0.953488 28:-1 29:0.777778 30:1 31:-0.0567321 32:-0.25 33:-0.328125 34:0.62 35:-1 36:-1 37:-1 38:-1 39:0.25 40:-0.62 41:-0.2 42:-0.9375 43:0.410526 44:-1 45:-0.68 46:-0.36 47:-0.92 48:1 49:-1 50:-1 51:1 52:1 
0 128 1:0.0275229 2:0.117808 3:-0.602034 4:-0.970231 5:-0.98946 6:-0.9884 7:-0.999906 8:0.269382 9:-0.950753 10:-0.984555 11:-0.995346 13:-0.978261 14:-0.2 15:0.687527 16:-1 17:-0.997106 18:1 19:-0.863636 20:-1 21:-1 23:-0.940737 24:-0.818182 25:-0.329032 26:0.409836 27:-0.953488 28:-1 29:0.777778 30:1 31:-0.0567321 32:-0.25 33:-0.328125 34:0.62 35:-1 36:-1 37:-1 38:-1 39:0.25 40:-0.62 41:-0.2 42:-0.9375 43:0.410526 44:-1 45:-0.68 46:-0.36 47:-0.92 48:1 49:-1 50:-1 51:1 52:1 
0 128 1:0.0275229 2:0.117808 3:-0.59661 4:-0.969561 5:-0.992095 6:-0.986569 7:-0.999919 8:0.286988 9:-0.949597 10:-0.988917 11:-0.993321 13:-0.978261 14:-0.2 15:0.687527 16:-1 17:-0.994211 18:1 19:-0.954545 20:-0.929577 21:-0.999091 23:-0.996009 24:-0.818182 25:-0.329032 26:0.409836 27:-0.953488 28:-1 29:0.777778 30:1 31:-0.0567321 32:-0.25 33:-0.328125 34:0.62 35:-1 36:-1 37:-1 38:-1 39:0.25 40:-0.62 41:-0.2 42:-0.9375 43:0.410526 44:-1 45:-0.68 46:-0.36 47:-0.92 48:1 49:-1 50:-1 51:1 52:1 
128 128 1:0.0275229 2:0.117808 3:-0.968814 4:-0.966785 5:-0.778656 6:-0.986569 7:-0.997721 8:-0.921172 9:-0.944801 10:-0.635622 11:-0.993321 13:-0.978261 14:-0.2 15:0.687527 16:-0.995 17:-0.997106 18:1 19:-0.909091 20:-0.996479 21:-0.99318 23:-0.656957 24:-0.818182 25:-0.329032 26:0.409836 27:-0.953488 28:-1 29:0.777778 30:1 31:-0.0567321 32:-0.25 33:-0.328125 34:0.62 35:-1 36:-1 37:-1 38:-1 39:0.25 40:-0.62 41:-0.2 42:-0.9375 43:0.410526 44:-1 45:-0.68 46:-0.36 47:-0.92 48:1 49:-1 50:-1 51:1 52:1 
0 128 1:0.0275229 2:0.117808 3:-0.854915 4:-0.967455 5:-0.98946 6:-0.9884 7:-0.999906 8:-0.551463 9:-0.945959 10:-0.984555 11:-0.995346 13:-0.978261 14:-0.2 15:0.687527 16:-1 17:-0.997106 18:1 19:-0.863636 20:-1 21:-1 23:-0.940737 24:-0.818182 25:-0.329032 26:0.409836 27:-0.953488 28:-1 29:0.777778 30:1 31:-0.0567321 32:-0.25 33:-0.328125 34:0.62 35:-1 36:-1 37:-1 38:-1 39:0.25 40:-0.62 41:-0.2 42:-0.9375 43:0.410526 44:-1 45:-0.68 46:-0.36 47:-0.92 48:1 49:-1 50:-1 51:1 52:1 
0 128 1:0.0275229 2:0.117808 3:-0.849492 4:-0.966785 5:-0.98419 6:-0.986569 7:-0.999837 8:-0.533857 9:-0.944801 10:-0.975832 11:-0.993321 13:-0.978261 14:-0.2 15:0.687527 16:-1 17:-0.994211 18:1 19:-0.954545 20:-0.929577 21:-0.999091 23:-0.996009 24:-0.818182 25:-0.329032 26:0.409836 27:-0.953488 28:-1 29:0.777778 30:1 31:-0.0567321 32:-0.25 33:-0.328125 34:0.62 35:-1 36:-1 37:-1 38:-1 39:0.25 40:-0.62 41:-0.2 42:-0.9375 43:0.410526 44:-1 45:-0.68 46:-0.36 47:-0.92 48:1 49:-1 50:-1 51:1 52:1 
0 128 1:0.0275229 2:0.117808 3:-0.841356 4:-0.966785 5:-0.664032 6:-0.986569 7:-0.99654 8:-0.507448 9:-0.944801 10:-0.44589 11:-0.993321 13:-0.978261 14:-0.2 15:0.687527 16:-0.99 17:-0.997106 18:1 19:-0.909091 20:-0.996479 21:-0.989543 23:-0.525788 24:-0.818182 25:-0.329032 26:0.409836 27:-0.953488 28:-1 29:0.777778 30:1 31:-0.0567321 32:-0.25 33:-0.328125 34:0.62 35:-1 36:-1 37:-1 38:-1 39:0.25 40:-0.62 41:-0.2 42:-0.9375 43:0.410526 44:-1 45:-0.68 46:-0.36 47:-0.92 48:1 49:-1 50:-1 51:1 52:1 
0 128 1:0.0275229 2:0.117808 3:-0.668475 4:-0.967455 5:-0.98946 6:-0.9884 7:-0.999906 8:0.0537172 9:-0.945959 10:-0.984555 11:-0.995346 13:-0.978261 14:-0.2 15:0.687527 16:-1 17:-0.997106 18:1 19:-0.863636 20:-1 21:-1 23:-0.940737 24:-0.818182 25:-0.329032 26:0.409836 27:-0.953488 28:-1 29:0.777778 30:1 31:-0.0567321 32:-0.25 33:-0.328125 34:0.62 35:-1 36:-1 37:-1 38:-1 39:0.25 40:-0.62 41:-0.2 42:-0.9375 43:0.410526 44:-1 45:-0.68 46:-0.36 47:-0.92 48:1 49:-1 50:-1 51:1 52:1 
0 128 1:0.0275229 2:0.117808 3:-0.663051 4:-0.966785 5:-0.992095 6:-0.986569 7:-0.999919 8:0.0713232 9:-0.944801 10:-0.988917 11:-0.993321 13:-0.978261 14:-0.2 15:0.687527 16:-1 17:-0.994211 18:1 19:-0.954545 20:-0.929577 21:-0.999091 23:-0.996009 24:-0.818182 25:-0.329032 26:0.409836 27:-0.953488 28:-1 29:0.777778 30:1 31:-0.0567321 32:-0.25 33:-0.328125 34:0.62 35:-1 36:-1 37:-1 38:-1 39:0.25 40:-0.62 41:-0.2 42:-0.9375 43:0.410526 44:-1 45:-0.68 46:-0.36 47:-0.92 48:1 49:-1 50:-1 51:1 52:1 
128 128 1:0.0275229 2:0.117808 3:-0.968814 4:-0.964009 5:-0.632411 6:-0.986569 7:-0.996215 8:-0.921172 9:-0.940006 10:-0.39355 11:-0.993321 13:-0.978261 14:-0.2 15:0.687527 16:-0.99 17:-0.997106 18:1 19:-0.909091 20:-0.996479 21:-0.988634 23:-0.496148 24:-0.818182 25:-0.329032 26:0.409836 27:-0.953488 28:-1 29:0.777778 30:1 31:-0.0567321 32:-0.25 33:-0.328125 34:0.62 35:-1 36:-1 37:-1 38:-1 39:0.25 40:-0.62 41:-0.2 42:-0.9375 43:0.410526 44:-1 45:-0.68 46:-0.36 47:-0.92 48:1 49:-1 50:-1 51:1 52:1 
0 128 1:0.0275229 2:0.117808 3:-0.779661 4:-0.964679 5:-0.98946 6:-0.9884 7:-0.999906 8:-0.30719 9:-0.941164 10:-0.984555 11:-0.995346 13:-0.978261 14:-0.2 15:0.687527 16:-1 17:-0.997106 18:1 19:-0.863636 20:-1 21:-1 23:-0.940737 24:-0.818182 25:-0.329032 26:0.409836 27:-0.953488 28:-1 29:0.777778 30:1 31:-0.0567321 32:-0.25 33:-0.328125 34:0.62 35:-1 36:-1 37:-1 38:-1 39:0.25 40:-0.62 41:-0.2 42:-0.9375 43:0.410526 44:-1 45:-0.68 46:-0.36 47:-0.92 48:1 49:-1 50:-1 51:1 52:1 
0 128 1:0.0275229 2:0.117808 3:-0.774237 4:-0.964009 5:-0.98419 6:-0.986569 7:-0.999837 8:-0.289584 9:-0.940006 10:-0.975832 11:-0.993321 13:-0.978261 14:-0.2 15:0.687527 16:-1 17:-0.994211 18:1 19:-0.954545 20:-0.929577 21:-0.999091 23:-0.996009 24:-0.818182 25:-0.329032 26:0.409836 27:-0.953488 28:-1 29:0.777778 30:1 31:-0.0567321 32:-0.25 33:-0.328125 34:0.62 35:-1 36:-1 37:-1 38:-1 39:0.25 40:-0.62 41:-0.2 42:-0.9375 43:0.410526 44:-1 45:-0.68 46:-0.36 47:-0.92 48:1 49:-1 50:-1 51:1 52:1 
0 128 1:0.0275229 2:0.117808 3:-0.766102 4:-0.964009 5:-0.783926 6:-0.986569 7:-0.997775 8:-0.263176 9:-0.940006 10:-0.644346 11:-0.993321 13:-0.978261 14:-0.2 15:0.687527 16:-0.995 17:-0.997106 18:1 19:-0.909091 20:-0.996479 21:-0.99318 23:-0.656957 24:-0.818182 25:-0.329032 26:0.409836 27:-0.953488 28:-1 29:0.777778 30:1 31:-0.0567321 32:-0.25 33:-0.328125 34:0.62 35:-1 36:-1 37:-1 38:-1 39:0.25 40:-0.62 41:-0.2 42:-0.9375 43:0.410526 44:-1 45:-0.68 46:-0.36 47:-0.92 48:1 49:-1 50:-1 51:1 52:1 
0 128 1:0.0275229 2:0.117808 3:-0.654915 4:-0.964679 5:-0.98946 6:-0.9884 7:-0.999906 8:0.0977313 9:-0.941164 10:-0.984555 11:-0.995346 13:-0.978261 14:-0.2 15:0.687527 16:-1 17:-0.997106 18:1 19:-0.863636 20:-1 21:-1 23:-0.940737 24:-0.818182 25:-0.329032 26:0.409836 27:-0.953488 28:-1 29:0.777778 30:1 31:-0.0567321 32:-0.25 33:-0.328125 34:0.62 35:-1 36:-1 37:-1 38:-1 39:0.25 40:-0.62 41:-0.2 42:-0.9375 43:0.410526 44:-1 45:-0.68 46:-0.36 47:-0.92 48:1 49:-1 50:-1 51:1 52:1 
0 128 1:0.0275229 2:0.117808 3:-0.649492 4:-0.964009 5:-0.992095 6:-0.986569 7:-0.999919 8:0.115337 9:-0.940006 10:-0.988917 11:-0.993321 13:-0.978261 14:-0.2 15:0.687527 16:-1 17:-0.994211 18:1 19:-0.954545 20:-0.929577 21:-0.999091 23:-0.996009 24:-0.818182 25:-0.329032 26:0.409836 27:-0.953488 28:-1 29:0.777778 30:1 31:-0.0567321 32:-0.25 33:-0.328125 34:0.62 35:-1 36:-1 37:-1 38:-1 39:0.25 40:-0.62 41:-0.2 42:-0.9375 43:0.410526 44:-1 45:-0.68 46:-0.36 47:-0.92 48:1 49:-1 50:-1 51:1 52:1 
128 128 1:0.0275229 2:0.117808 3:-0.968814 4:-0.961233 5:-0.632411 6:-0.986569 7:-0.996215 8:-0.921172 9:-0.935212 10:-0.39355 11:-0.993321 13:-0.978261 14:-0.2 15:0.687527 16:-0.9925 17:-0.997106 18:1 19:-0.909091 20:-0.996479 21:-0.988634 23:-0.496148 24:-0.818182 25:-0.329032 26:0.409836 27:-0.953488 28:-1 29:0.777778 30:1 31:-0.0567321 32:-0.25 33:-0.328125 34:0.62 35:-1 36:-1 37:-1 38:-1 39:0.25 40:-0.62 41:-0.2 42:-0.9375 43:0.410526 44:-1 45:-0.68 46:-0.36 47:-0.92 48:1 49:-1 50:-1 51:1 52:1 
0 128 1:0.0275229 2:0.117808 3:-0.779661 4:-0.961903 5:-0.98946 6:-0.9884 7:-0.999906 8:-0.30719 9:-0.93637 10:-0.984555 11:-0.995346 13:-0.978261 14:-0.2 15:0.687527 16:-1 17:-0.997106 18:1 19:-0.863636 20:-1 21:-1 23:-0.940737 24:-0.818182 25:-0.329032 26:0.409836 27:-0.953488 28:-1 29:0.777778 30:1 31:-0.0567321 32:-0.25 33:-0.328125 34:0.62 35:-1 36:-1 37:-1 38:-1 39:0.25 40:-0.62 41:-0.2 42:-0.9375 43:0.410526 44:-1 45:-0.68 46:-0.36 47:-0.92 48:1 49:-1 50:-1 51:1 52:1 
0 128 1:0.0275229 2:0.117808 3:-0.774237 4:-0.961233 5:-0.938076 6:-0.986569 7:-0.999362 8:-0.289584 9:-0.935212 10:-0.899504 11:-0.993321 13:-0.978261 14:-0.2 15:0.687527 16:-1 17:-0.994211 18:1 19:-0.954545 20:-0.929577 21:-0.997727 23:-0.992003 24:-0.818182 25:-0.329032 26:0.409836 27:-0.953488 28:-1 29:0.777778 30:1 31:-0.0567321 32:-0.25 33:-0.328125 34:0.62 35:-1 36:-1 37:-1 38:-1 39:0.25 40:-0.62 41:-0.2 42:-0.9375 43:0.410526 44:-1 45:-0.68 46:-0.36 47:-0.92 48:1 49:-1 50:-1 51:1 52:1 
0 128 1:0.0275229 2:0.117808 3:-0.742373 4:-0.961233 5:-0.648221 6:-0.986569 7:-0.996378 8:-0.186154 9:-0.935212 10:-0.41972 11:-0.993321 13:-0.978261 14:-0.2 15:0.687527 16:-0.99 17:-0.997106 18:1 19:-0.909091 20:-0.992958 21:-0.989088 23:-0.66185 24:-0.818182 25:-0.329032 26:0.409836 27:-0.953488 28:-1 29:0.777778 30:1 31:-0.0567321 32:-0.25 33:-0.328125 34:0.62 35:-1 36:-1 37:-1 38:-1 39:0.25 40:-0.62 41:-0.2 42:-0.9375 43:0.410526 44:-1 45:-0.68 46:-0.36 47:-0.92 48:1 49:-1 50:-1 51:1 52:1 
0 128 1:0.0275229 2:0.117808 3:-0.561356 4:-0.961903 5:-0.98946 6:-0.9884 7:-0.999906 8:0.401422 9:-0.93637 10:-0.984555 11:-0.995346 13:-0.978261 14:-0.2 15:0.687527 16:-1 17:-0.997106 18:1 19:-0.863636 20:-1 21:-1 23:-0.940737 24:-0.818182 25:-0.329032 26:0.409836 27:-0.953488 28:-1 29:0.777778 30:1 31:-0.0567321 32:-0.25 33:-0.328125 34:0.62 35:-1 36:-1 37:-1 38:-1 39:0.25 40:-0.62 41:-0.2 42:-0.9375 43:0.410526 44:-1 45:-0.68 46:-0.36 47:-0.92 48:1 49:-1 50:-1 51:1 52:1 
128 0 1:0.0275229 2:0.117808 3:-0.968814 4:-0.957595 5:-0.990777 6:-0.989621 7:-0.999927 8:-0.921172 9:-0.92893 10:-0.986737 11:-0.996698 13:-0.978261 14:-0.2 15:0.687527 16:-1 17:-0.985528 18:1 19:-0.909091 20:-1 21:-1 23:-0.940737 24:-0.818182 25:-0.329032 26:0.409836 27:-0.953488 28:-1 29:0.777778 30:1 31:-0.0567321 32:-1 33:-0.703125 34:0.9 35:-1 36:-1 37:-1 38:-1 39:-0.875 40:-0.9 41:0.4 42:-0.90625 43:0.747368 44:-1 45:-0.92 46:-0.48 47:-1 48:-0.333333 49:-1 50:-1 51:1 52:1 
128 0 1:0.0275229 2:0.117808 3:-0.968814 4:-0.957021 5:-0.16469 6:-0.976801 7:-0.985143 8:-0.921172 9:-0.927938 10:0.380645 11:-0.982496 13:-0.956522 14:-0.2 15:0.636955 16:-0.955 17:-0.997106 18:1 19:-0.954545 20:-0.992958 21:-0.931803 23:0.317457 24:-0.818182 25:-0.329032 26:0.409836 27:-0.953488 28:-1 29:0.777778 30:1 31:-0.0567321 32:-1 33:-0.703125 34:0.9 35:-1 36:-1 37:-1 38:-1 39:-0.875 40:-0.9 41:0.4 42:-0.90625 43:0.747368 44:-1 45:-0.92 46:-0.48 47:-1 48:-0.333333 49:-1 50:-1 51:1 52:1 
0 128 1:0.0275229 2:0.117808 3:-0.968814 4:-0.946683 5:-0.990777 6:-0.989621 7:-0.999927 8:-0.921172 9:-0.910084 10:-0.986737 11:-0.996698 13:-0.978261 14:-0.2 15:0.687527 16:-1 17:-0.991317 18:1 19:-0.909091 20:-1 21:-1 23:-0.940737 24:-0.818182 25:-0.329032 26:0.409836 27:-0.953488 28:-1 29:0.777778 30:1 31:-0.0567321 32:-0.625 33:-0.65625 34:0.7 35:-0.625 36:-0.78 37:-1 38:-1 39:-0.875 40:-0.94 41:0.2 42:-0.90625 43:0.536842 44:-0.833333 45:-0.866667 46:-0.44 47:-1 48:0.333333 49:1 50:-1 51:1 52:1 
0 128 1:0.0275229 2:0.117808 3:-0.968814 4:-0.946109 5:-0.155468 6:-0.961538 7:-0.975097 8:-0.921172 9:-0.909092 10:0.39591 11:-0.965591 13:-0.934783 14:-0.238095 15:-0.0115039 16:-0.95 17:-0.997106 18:1 19:-0.954545 20:-0.971831 21:-0.933167 23:-0.546688 24:-0.818182 25:-0.329032 26:0.409836 27:-0.953488 28:-1 29:0.777778 30:1 31:-0.0567321 32:-0.625 33:-0.65625 34:0.7 35:-0.625 36:-0.78 37:-1 38:-1 39:-0.875 40:-0.94 41:0.2 42:-0.90625 43:0.536842 44:-0.833333 45:-0.866667 46:-0.44 47:-1 48:0.333333 49:1 50:-1 51:1 52:1 
97.35644488547135 0 1:0.0275229 2:0.117808 3:-0.968814 4:-0.940078 5:-0.636364 6:-0.9884 7:-0.996766 8:-0.921172 9:-0.898676 10:-0.400092 11:-0.995346 13:-0.978261 14:-0.2 15:0.687527 16:-1 17:-0.982634 18:1 19:-0.909091 20:-1 21:-0.986361 23:-0.426808 24:-0.818182 25:-0.329032 26:0.409836 27:-0.953488 28:-1 29:0.777778 30:1 31:-0.0567321 32:-0.625 33:-0.921875 34:0.68 35:-1 36:-1 37:-1 38:-1 39:-0.875 40:-0.68 42:-0.96875 43:0.789474 44:-1 45:-0.76 46:-0.88 47:-0.94 48:-1 49:-1 50:-1 51:1 52:1 
128 0 1:0.0275229 2:0.117808 3:-0.960678 4:-0.871255 5:-0.664032 6:-0.98779 7:-0.996855 8:-0.894764 9:-0.779809 10:-0.44589 11:-0.994674 13:-0.978261 14:-0.2 15:0.687527 16:-0.995 17:-0.962373 18:1 19:-0.545455 20:-1 21:-0.988634 23:-0.111843 24:-0.818182 25:-0.329032 26:0.409836 27:-0.953488 28:-1 29:0.777778 30:1 31:-0.0567321 32:-1 33:-0.953125 34:1 35:-1 36:-1 37:-1 38:-1 39:-1 40:-1 41:0.6 42:-0.90625 43:0.873684 44:-1 45:-1 46:-0.56 47:-1 48:-1 49:-1 50:-1 51:1 52:1 
128 0 1:0.0275229 2:0.117808 3:-0.930169 4:-0.868958 5:-0.516469 6:-0.976801 7:-0.9914 8:-0.795735 9:-0.77584 10:-0.201638 11:-0.982496 13:-0.956522 14:-0.2 15:-0.0711698 16:-0.9875 17:-0.991317 18:1 19:-0.590909 20:-1 21:-0.976813 23:0.232978 24:-0.818182 25:-0.329032 26:0.409836 27:-0.953488 28:-1 29:0.777778 30:1 31:-0.0567321 32:-1 33:-0.890625 34:0.4 35:-1 36:-1 37:-1 38:-1 39:-0.625 40:-0.4 41:0.2 42:-0.90625 43:0.747368 44:-1 45:-1 46:-0.56 47:-0.9 48:-1 49:-1 50:-1 51:1 52:1 
128 128 1:0.0275229 2:0.117808 3:-0.772881 4:-0.851919 5:-0.971014 6:-0.9884 7:-0.999742 8:-0.285184 9:-0.746413 10:-0.954024 11:-0.995346 13:-0.978261 14:-0.2 15:0.687527 16:-1 17:-0.991317 18:1 19:-0.954545 20:-1 21:-0.999091 23:-0.832061 24:-0.818182 25:-0.329032 26:0.409836 27:-0.953488 28:-1 29:0.777778 30:1 31:-0.0567321 32:-0.625 33:0.015625 34:0.74 35:-0.625 36:-0.92 37:-1 38:-1 39:-0.125 40:-0.82 41:0.4 42:-0.8125 43:0.768421 44:-1 45:-0.973333 46:-0.52 47:-0.98 48:1 49:-1 50:-1 51:1 52:1 
54.88108592908761 128 1:0.0275229 2:0.117808 3:-0.968814 4:-0.644683 5:-0.512516 6:-0.98779 7:-0.995437 8:-0.921172 9:-0.388487 10:-0.195095 11:-0.994674 13:-0.978261 14:-0.2 15:0.687527 16:-0.9925 17:-0.968162 18:1 19:-0.909091 20:-1 21:-0.982723 23:0.0208077 24:-0.818182 25:-0.329032 26:0.409836 27:-0.953488 28:-1 29:0.777778 30:1 31:-0.0567321 33:0.578125 34:0.86 35:-0.375 36:-0.92 37:-1 38:-1 39:-0.625 40:-0.96 41:0.2 42:-0.71875 43:0.726316 44:-0.97619 45:-0.973333 46:-0.44 47:-1 48:1 49:1 50:-1 51:1 52:1 
128 0 1:0.0275229 2:0.117808 3:-0.947797 4:-0.620752 5:-0.818182 6:-0.98779 7:-0.998298 8:-0.852952 9:-0.347157 10:-0.701047 11:-0.994674 13:-0.978261 14:-0.2 15:0.687527 16:-0.995 17:-0.939219 18:1 19:-0.545455 20:-1 21:-0.99318 23:-0.355065 24:-0.818182 25:-0.329032 26:0.409836 27:-0.953488 28:-1 29:0.777778 30:1 31:-0.0567321 32:-1 33:-0.953125 34:1 35:-1 36:-1 37:-1 38:-1 39:-1 40:-1 41:-0.2 42:-0.90625 43:0.621053 44:-1 45:-0.866667 46:-0.32 47:-1 48:-0.333333 49:-1 50:-1 51:1 52:1 
128 0 1:0.0275229 2:0.117808 3:-0.84678 4:-0.620752 5:-0.234519 6:-0.9884 7:-0.993193 8:-0.525055 9:-0.347157 10:0.265061 11:-0.995346 13:-0.978261 14:-0.2 15:0.687527 16:-0.9775 17:-0.982634 18:1 19:-0.590909 20:-0.996479 21:-0.968629 23:0.248506 24:-0.818182 25:-0.329032 26:0.409836 27:-0.953488 28:-1 29:0.777778 30:1 31:-0.0567321 32:-1 33:-0.859375 34:0.8 35:-0.875 36:-0.8 37:-1 38:-1 39:-1 40:-1 41:0.4 42:-0.84375 43:0.789474 44:-0.97619 45:-1 46:-0.44 47:-1 48:-1 49:-1 50:-1 51:1 52:1 
128 128 1:0.0275229 2:0.117808 3:-0.642712 4:-0.58993 5:-0.920949 6:-0.9884 7:-0.999297 8:0.137343 9:-0.293923 10:-0.871153 11:-0.995346 13:-0.978261 14:-0.2 15:0.687527 16:-0.9975 17:-0.997106 18:1 19:-0.909091 20:-1 21:-0.997272 23:-0.686498 24:-0.818182 25:-0.329032 26:0.409836 27:-0.953488 28:-1 29:0.777778 30:1 31:-0.0567321 32:-0.5 33:0.109375 34:0.82 35:-0.75 36:-0.96 37:-1 38:-1 39:-0.375 40:-0.88 41:0.2 42:-0.6875 43:0.747368 44:-1 45:-0.973333 46:-0.44 47:-1 48:1 49:-1 50:-1 51:1 52:1 
0 128 1:0.0275229 2:0.117808 3:-0.582373 4:-0.583613 5:-0.789196 6:-0.9884 7:-0.998125 8:0.333202 9:-0.28301 10:-0.653069 11:-0.995346 13:-0.978261 14:-0.2 15:0.687527 16:-0.9925 17:-0.997106 18:1 19:-0.909091 20:-1 21:-0.991816 23:-0.328193 24:-0.818182 25:-0.329032 26:0.409836 27:-0.953488 28:-1 29:0.777778 30:1 31:-0.0567321 32:0.625 33:1 34:0.54 35:1 36:-0.78 37:-1 38:-1 39:1 40:-0.78 42:-0.84375 43:0.642105 44:-0.952381 45:-0.946667 46:-0.4 47:-0.96 48:1 49:1 50:-1 51:1 52:1 
0 128 1:0.0275229 2:0.117808 3:-0.467119 4:-0.583613 5:-0.920949 6:-0.9884 7:-0.999297 8:0.707313 9:-0.28301 10:-0.871153 11:-0.995346 13:-0.978261 14:-0.2 15:0.687527 16:-0.9975 17:-0.997106 18:1 19:-0.909091 20:-1 21:-0.997272 23:-0.686498 24:-0.818182 25:-0.329032 26:0.409836 27:-0.953488 28:-1 29:0.777778 30:1 31:-0.0567321 32:0.625 33:1 34:0.54 35:1 36:-0.78 37:-1 38:-1 39:1 40:-0.78 42:-0.84375 43:0.642105 44:-0.952381 45:-0.946667 46:-0.4 47:-0.96 48:1 49:1 50:-1 51:1 52:1 
0 128 1:0.0275229 2:0.117808 3:-0.416949 4:-0.568871 5:-0.910408 6:-0.9884 7:-0.999203 8:0.870162 9:-0.257551 10:-0.853706 11:-0.995346 13:-0.978261 14:-0.2 15:0.687527 16:-0.9975 17:-0.997106 18:1 19:-0.909091 20:-1 21:-0.996817 23:-0.6495 24:-0.818182 25:-0.329032 26:0.409836 27:-0.953488 28:-1 29:0.777778 30:1 31:-0.0567321 32:0.625 33:1 34:0.54 35:1 36:-0.78 37:-1 38:-1 39:1 40:-0.78 42:-0.84375 43:0.642105 44:-0.952381 45:-0.946667 46:-0.4 47:-0.96 48:1 49:1 50:-1 51:1 52:1 
128 0 1:0.0275229 2:0.117808 3:-0.947797 4:-0.393989 5:-0.818182 6:-0.98779 7:-0.998298 8:-0.852952 9:0.0444943 10:-0.701047 11:-0.994674 13:-0.978261 14:-0.2 15:0.687527 16:-0.995 17:-0.916064 18:1 19:-0.545455 20:-1 21:-0.99318 23:-0.355065 24:-0.818182 25:-0.329032 26:0.409836 27:-0.953488 28:-1 29:0.777778 30:1 31:-0.0567321 32:-1 33:-0.953125 34:1 35:-1 36:-1 37:-1 38:-1 39:-1 40:-1 41:-0.2 42:-0.90625 43:0.621053 44:-1 45:-0.866667 46:-0.32 47:-1 48:-0.333333 49:-1 50:-1 51:1 52:1 
128 0 1:0.0275229 2:0.117808 3:-0.84678 4:-0.393989 5:-0.220026 6:-0.9884 7:-0.993064 8:-0.525055 9:0.0444943 10:0.289049 11:-0.995346 13:-0.978261 14:-0.2 15:0.687527 16:-0.98 17:-0.982634 18:1 19:-0.590909 20:-0.996479 21:-0.968175 23:0.255233 24:-0.818182 25:-0.329032 26:0.409836 27:-0.953488 28:-1 29:0.777778 30:1 31:-0.0567321 32:-1 33:-0.875 34:0.78 35:-0.875 36:-0.78 37:-1 38:-1 39:-1 40:-1 41:0.6 42:-0.84375 43:0.810526 44:-0.97619 45:-1 46:-0.52 47:-1 48:-1 49:-1 50:-1 51:1 52:1 
128 128 1:0.0275229 2:0.117808 3:-0.56339 4:-0.351106 5:-0.985507 6:-0.9884 7:-0.999871 8:0.39482 9:0.11856 10:-0.978012 11:-0.995346 13:-0.978261 14:-0.2 15:0.687527 16:-1 17:-0.994211 18:1 19:-1 20:-0.274648 21:-1 23:-1 24:-0.818182 25:-0.329032 26:0.409836 27:-0.953488 28:-1 29:0.777778 30:1 31:-0.0567321 33:1 34:0.92 35:-1 36:-1 37:-1 38:-1 39:0.125 40:-0.92 41:0.2 42:-0.6875 43:0.789474 44:-1 45:-1 46:-0.48 47:-1 48:1 49:-1 50:-1 51:1 52:1 
128 128 1:0.0275229 2:0.117808 3:-0.555932 4:-0.350723 5:-0.84058 6:-0.989621 7:-0.998732 8:0.419026 9:0.119221 10:-0.738122 11:-0.996698 13:-0.978261 14:-0.2 15:0.687527 16:-1 17:-0.997106 18:1 19:-0.954545 20:-1 21:-0.993635 23:-0.4296 24:-0.818182 25:-0.329032 26:0.409836 27:-0.953488 28:-1 29:0.777778 30:1 31:-0.0567321 33:1 34:0.92 35:-1 36:-1 37:-1 38:-1 39:0.125 40:-0.92 41:0.2 42:-0.6875 43:0.789474 44:-1 45:-1 46:-0.48 47:-1 48:1 49:-1 50:-1 51:1 52:1 
128 128 1:0.0275229 2:0.117808 3:-0.473898 4:-0.351106 5:-0.992095 6:-0.9884 7:-0.99993 8:0.685307 9:0.11856 10:-0.988917 11:-0.995346 13:-0.978261 14:-0.2 15:0.687527 16:-1 17:-0.997106 18:1 19:-1 20:-0.274648 21:-1 23:-1 24:-0.818182 25:-0.329032 26:0.409836 27:-0.953488 28:-1 29:0.777778 30:1 31:-0.0567321 33:1 34:0.92 35:-1 36:-1 37:-1 38:-1 39:0.125 40:-0.92 41:0.2 42:-0.6875 43:0.789474 44:-1 45:-1 46:-0.48 47:-1 48:1 49:-1 50:-1 51:1 52:1 
128 128 1:0.0275229 2:0.117808 3:-0.614915 4:-0.346128 5:-0.98419 6:-0.9884 7:-0.999859 8:0.22757 9:0.127156 10:-0.975832 11:-0.995346 13:-0.978261 14:-0.2 15:0.687527 16:-1 17:-0.991317 18:1 19:-0.954545 20:-1 21:-1 23:-0.940737 24:-0.818182 25:-0.329032 26:0.409836 27:-0.953488 28:-1 29:0.777778 30:1 31:-0.0567321 33:1 34:0.92 35:-1 36:-1 37:-1 38:-1 39:0.125 40:-0.92 41:0.2 42:-0.6875 43:0.789474 44:-1 45:-1 46:-0.48 47:-1 48:1 49:-1 50:-1 51:1 52:1 
128 128 1:0.0275229 2:0.117808 3:-0.60678 4:-0.345745 5:-0.84058 6:-0.989621 7:-0.998732 8:0.253978 9:0.127817 10:-0.738122 11:-0.996698 13:-0.978261 14:-0.2 15:0.687527 16:-1 17:-0.994211 18:1 19:-0.954545 20:-1 21:-0.993635 23:-0.4296 24:-0.818182 25:-0.329032 26:0.409836 27:-0.953488 28:-1 29:0.777778 30:1 31:-0.0567321 33:1 34:0.92 35:-1 36:-1 37:-1 38:-1 39:0.125 40:-0.92 41:0.2 42:-0.6875 43:0.789474 44:-1 45:-1 46:-0.48 47:-1 48:1 49:-1 50:-1 51:1 52:1 
128 128 1:0.0275229 2:0.117808 3:-0.524746 4:-0.346128 5:-0.985507 6:-0.9884 7:-0.999871 8:0.520257 9:0.127156 10:-0.978012 11:-0.995346 13:-0.978261 14:-0.2 15:0.687527 16:-1 17:-0.997106 18:1 19:-1 20:-0.274648 21:-0.999545 23:-0.999986 24:-0.818182 25:-0.329032 26:0.409836 27:-0.953488 28:-1 29:0.777778 30:1 31:-0.0567321 33:1 34:0.92 35:-1 36:-1 37:-1 38:-1 39:0.125 40:-0.92 41:0.2 42:-0.6875 43:0.789474 44:-1 45:-1 46:-0.48 47:-1 48:1 49:-1 50:-1 51:1 52:1 
0 128 1:0.0275229 2:0.117808 3:-0.616949 4:-0.337226 5:-0.971014 6:-0.9884 7:-0.999742 8:0.220968 9:0.142532 10:-0.954024 11:-0.995346 13:-0.978261 14:-0.2 15:0.687527 16:-1 17:-0.997106 18:1 19:-0.909091 20:-1 21:-0.999091 23:-0.852542 24:-0.818182 25:-0.329032 26:0.409836 27:-0.953488 28:-1 29:0.777778 30:1 31:-0.0567321 32:-0.25 33:0.71875 34:0.68 36:-0.88 37:-1 38:-1 39:0.625 40:-0.8 41:0.2 42:-0.625 43:0.726316 44:-0.97619 45:-0.973333 46:-0.48 47:-0.98 48:1 49:1 50:-1 51:1 52:1 
0 128 1:0.0275229 2:0.117808 3:-0.701695 4:-0.334833 5:-0.920949 6:-0.9884 7:-0.999297 8:-0.0541131 9:0.146665 10:-0.871153 11:-0.995346 13:-0.978261 14:-0.2 15:0.687527 16:-1 17:-0.991317 18:1 19:-0.909091 20:-1 21:-0.997272 23:-0.686498 24:-0.818182 25:-0.329032 26:0.409836 27:-0.953488 28:-1 29:0.777778 30:1 31:-0.0567321 32:-0.25 33:0.71875 34:0.68 36:-0.88 37:-1 38:-1 39:0.625 40:-0.8 41:0.2 42:-0.625 43:0.726316 44:-0.97619 45:-0.973333 46:-0.48 47:-0.98 48:1 49:1 50:-1 51:1 52:1 
0 128 1:0.0275229 2:0.117808 3:-0.44678 4:-0.33244 5:-0.957839 6:-0.9884 7:-0.999625 8:0.773333 9:0.150798 10:-0.932216 11:-0.995346 13:-0.978261 14:-0.2 15:0.687527 16:-1 17:-0.997106 18:1 19:-0.909091 20:-1 21:-0.998636 23:-0.808067 24:-0.818182 25:-0.329032 26:0.409836 27:-0.953488 28:-1 29:0.777778 30:1 31:-0.0567321 32:-0.25 33:0.71875 34:0.68 36:-0.88 37:-1 38:-1 39:0.625 40:-0.8 41:0.2 42:-0.625 43:0.726316 44:-0.97619 45:-0.973333 46:-0.48 47:-0.98 48:1 49:1 50:-1 51:1 52:1 
0 128 1:0.0275229 2:0.117808 3:-0.583051 4:-0.330047 5:-0.920949 6:-0.9884 7:-0.999297 8:0.331 9:0.154931 10:-0.871153 11:-0.995346 13:-0.978261 14:-0.2 15:0.687527 16:-1 17:-0.997106 18:1 19:-0.909091 20:-1 21:-0.997272 23:-0.686498 24:-0.818182 25:-0.329032 26:0.409836 27:-0.953488 28:-1 29:0.777778 30:1 31:-0.0567321 32:-0.25 33:0.71875 34:0.68 36:-0.88 37:-1 38:-1 39:0.625 40:-0.8 41:0.2 42:-0.625 43:0.726316 44:-0.97619 45:-0.973333 46:-0.48 47:-0.98 48:1 49:1 50:-1 51:1 52:1 
0 128 1:0.0275229 2:0.117808 3:-0.75661 4:-0.327654 5:-0.920949 6:-0.9884 7:-0.999297 8:-0.232368 9:0.159064 10:-0.871153 11:-0.995346 13:-0.978261 14:-0.2 15:0.687527 16:-1 17:-0.997106 18:1 19:-0.909091 20:-1 21:-0.997272 23:-0.686498 24:-0.818182 25:-0.329032 26:0.409836 27:-0.953488 28:-1 29:0.777778 30:1 31:-0.0567321 32:-0.25 33:0.71875 34:0.68 36:-0.88 37:-1 38:-1 39:0.625 40:-0.8 41:0.2 42:-0.625 43:0.726316 44:-0.97619 45:-0.973333 46:-0.48 47:-0.98 48:1 49:1 50:-1 51:1 52:1 
0 128 1:0.0275229 2:0.117808 3:-0.471864 4:-0.321336 5:-0.957839 6:-0.9884 7:-0.999625 8:0.691909 9:0.169977 10:-0.932216 11:-0.995346 13:-0.978261 14:-0.2 15:0.687527 16:-1 17:-0.997106 18:1 19:-0.909091 20:-1 21:-0.998636 23:-0.808067 24:-0.818182 25:-0.329032 26:0.409836 27:-0.953488 28:-1 29:0.777778 30:1 31:-0.0567321 32:-0.25 33:0.625 34:0.64 35:0.25 36:-0.86 37:-0.818182 38:-1 39:0.5 40:-0.82 41:0.2 42:-0.8125 43:0.663158 44:-0.952381 45:-0.946667 46:-0.44 47:-0.98 48:1 49:1 50:-1 51:1 52:1 
0 128 1:0.0275229 2:0.117808 3:-0.690169 4:-0.31655 5:-0.801054 6:-0.9884 7:-0.998231 8:-0.016703 9:0.178243 10:-0.672697 11:-0.995346 13:-0.978261 14:-0.2 15:0.687527 16:-0.99 17:-0.997106 18:1 19:-0.909091 20:-1 21:-0.991816 23:-0.328193 24:-0.818182 25:-0.329032 26:0.409836 27:-0.953488 28:-1 29:0.777778 30:1 31:-0.0567321 32:-0.25 33:0.625 34:0.64 35:0.25 36:-0.86 37:-0.818182 38:-1 39:0.5 40:-0.82 41:0.2 42:-0.8125 43:0.663158 44:-0.952381 45:-0.946667 46:-0.44 47:-0.98 48:1 49:1 50:-1 51:1 52:1 
0 128 1:0.0275229 2:0.117808 3:-0.584407 4:-0.31655 5:-0.957839 6:-0.9884 7:-0.999625 8:0.3266 9:0.178243 10:-0.932216 11:-0.995346 13:-0.978261 14:-0.2 15:0.687527 16:-1 17:-0.994211 18:1 19:-0.909091 20:-1 21:-0.998636 23:-0.808067 24:-0.818182 25:-0.329032 26:0.409836 27:-0.953488 28:-1 29:0.777778 30:1 31:-0.0567321 32:-0.25 33:0.625 34:0.64 35:0.25 36:-0.86 37:-0.818182 38:-1 39:0.5 40:-0.82 41:0.2 42:-0.8125 43:0.663158 44:-0.952381 45:-0.946667 46:-0.44 47:-0.98 48:1 49:1 50:-1 51:1 52:1 
0 128 1:0.0275229 2:0.117808 3:-0.666441 4:-0.311764 5:-0.939394 6:-0.9884 7:-0.999461 8:0.0603192 9:0.186509 10:-0.901684 11:-0.995346 13:-0.978261 14:-0.2 15:0.687527 16:-0.9975 17:-0.997106 18:1 19:-0.909091 20:-1 21:-0.997727 23:-0.725178 24:-0.818182 25:-0.329032 26:0.409836 27:-0.953488 28:-1 29:0.777778 30:1 31:-0.0567321 32:-0.25 33:0.625 34:0.64 35:0.25 36:-0.86 37:-0.818182 38:-1 39:0.5 40:-0.82 41:0.2 42:-0.8125 43:0.663158 44:-0.952381 45:-0.946667 46:-0.44 47:-0.98 48:1 49:1 50:-1 51:1 52:1 
0 128 1:0.0275229 2:0.117808 3:-0.485424 4:-0.293481 5:-0.924901 6:-0.9884 7:-0.999332 8:0.647895 9:0.218084 10:-0.877694 11:-0.995346 13:-0.978261 14:-0.2 15:0.687527 16:-1 17:-0.997106 18:1 19:-0.909091 20:-1 21:-0.997272 23:-0.686498 24:-0.818182 25:-0.329032 26:0.409836 27:-0.953488 28:-1 29:0.777778 30:1 31:-0.0567321 32:-0.5 33:1 34:0.76 35:-0.375 36:-0.94 37:-1 38:-1 39:0.75 40:-0.82 42:-0.71875 43:0.726316 44:-0.97619 45:-0.973333 46:-0.44 47:-0.98 48:1 49:1 50:-1 51:1 52:1 
0 128 1:0.0275229 2:0.117808 3:-0.659661 4:-0.288695 5:-0.957839 6:-0.9884 7:-0.999625 8:0.0823273 9:0.22635 10:-0.932216 11:-0.995346 13:-0.978261 14:-0.2 15:0.687527 16:-1 17:-0.997106 18:1 19:-0.909091 20:-1 21:-0.998636 23:-0.808067 24:-0.818182 25:-0.329032 26:0.409836 27:-0.953488 28:-1 29:0.777778 30:1 31:-0.0567321 32:-0.5 33:1 34:0.76 35:-0.375 36:-0.94 37:-1 38:-1 39:0.75 40:-0.82 42:-0.71875 43:0.726316 44:-0.97619 45:-0.973333 46:-0.44 47:-0.98 48:1 49:1 50:-1 51:1 52:1 
0 128 1:0.0275229 2:0.117808 3:-0.490847 4:-0.288695 5:-0.924901 6:-0.9884 7:-0.999332 8:0.630289 9:0.22635 10:-0.877694 11:-0.995346 13:-0.978261 14:-0.2 15:0.687527 16:-1 17:-0.997106 18:1 19:-0.909091 20:-1 21:-0.997272 23:-0.686498 24:-0.818182 25:-0.329032 26:0.409836 27:-0.953488 28:-1 29:0.777778 30:1 31:-0.0567321 32:-0.5 33:1 34:0.76 35:-0.375 36:-0.94 37:-1 38:-1 39:0.75 40:-0.82 42:-0.71875 43:0.726316 44:-0.97619 45:-0.973333 46:-0.44 47:-0.98 48:1 49:1 50:-1 51:1 52:1 
128 128 1:0.0275229 2:0.117808 3:-0.807458 4:-0.277592 5:-0.924901 6:-0.9884 7:-0.999332 8:-0.397416 9:0.245529 10:-0.877694 11:-0.995346 13:-0.978261 14:-0.2 15:0.687527 16:-1 17:-0.997106 18:1 19:-0.909091 20:-1 21:-0.997272 23:-0.686498 24:-0.818182 25:-0.329032 26:0.409836 27:-0.953488 28:-1 29:0.777778 30:1 31:-0.0567321 32:-0.125 33:1 34:0.88 35:-0.5 36:-0.98 37:-1 38:-1 39:0.5 40:-0.92 42:-0.65625 43:0.747368 44:-1 45:-0.973333 46:-0.4 47:-1 48:1 49:1 50:-1 51:1 52:1 
128 128 1:0.0275229 2:0.117808 3:-0.890169 4:-0.272806 5:-0.957839 6:-0.9884 7:-0.999625 8:-0.665897 9:0.253795 10:-0.932216 11:-0.995346 13:-0.978261 14:-0.2 15:0.687527 16:-1 17:-0.997106 18:1 19:-0.909091 20:-1 21:-0.998636 23:-0.808067 24:-0.818182 25:-0.329032 26:0.409836 27:-0.953488 28:-1 29:0.777778 30:1 31:-0.0567321 32:-0.125 33:1 34:0.88 35:-0.5 36:-0.98 37:-1 38:-1 39:0.5 40:-0.92 42:-0.65625 43:0.747368 44:-1 45:-0.973333 46:-0.4 47:-1 48:1 49:1 50:-1 51:1 52:1 
0 128 1:0.0275229 2:0.117808 3:-0.638644 4:-0.250694 5:-0.957839 6:-0.9884 7:-0.999625 8:0.150547 9:0.291985 10:-0.932216 11:-0.995346 13:-0.978261 14:-0.2 15:0.687527 16:-1 17:-0.997106 18:1 19:-0.909091 20:-1 21:-0.998636 23:-0.808067 24:-0.818182 25:-0.329032 26:0.409836 27:-0.953488 28:-1 29:0.777778 30:1 31:-0.0567321 32:-0.125 33:1 34:0.88 35:-0.5 36:-0.98 37:-1 38:-1 39:0.5 40:-0.92 42:-0.65625 43:0.747368 44:-1 45:-0.973333 46:-0.4 47:-1 48:1 49:1 50:-1 51:1 52:1 
128 128 1:0.0275229 2:0.117808 3:-0.510508 4:-0.237197 5:-0.957839 6:-0.9884 7:-0.999625 8:0.566471 9:0.315295 10:-0.932216 11:-0.995346 13:-0.978261 14:-0.2 15:0.687527 16:-1 17:-0.997106 18:1 19:-0.909091 20:-1 21:-0.998636 23:-0.808067 24:-0.818182 25:-0.329032 26:0.409836 27:-0.953488 28:-1 29:0.777778 30:1 31:-0.0567321 32:0.125 33:1 34:0.84 35:-0.25 36:-0.94 37:-1 38:-1 39:0.25 40:-0.9 41:0.2 42:-0.6875 43:0.747368 44:-0.97619 45:-0.973333 46:-0.48 47:-1 48:1 49:0.333333 50:-1 51:1 52:1 
128 128 1:0.0275229 2:0.117808 3:-0.850169 4:-0.232411 5:-0.957839 6:-0.9884 7:-0.999625 8:-0.536059 9:0.323561 10:-0.932216 11:-0.995346 13:-0.978261 14:-0.2 15:0.687527 16:-1 17:-0.997106 18:1 19:-0.909091 20:-1 21:-0.998636 23:-0.808067 24:-0.818182 25:-0.329032 26:0.409836 27:-0.953488 28:-1 29:0.777778 30:1 31:-0.0567321 32:0.125 33:1 34:0.84 35:-0.25 36:-0.94 37:-1 38:-1 39:0.25 40:-0.9 41:0.2 42:-0.6875 43:0.747368 44:-0.97619 45:-0.973333 46:-0.48 47:-1 48:1 49:0.333333 50:-1 51:1 52:1 
0 128 1:0.0275229 2:0.117808 3:-0.941695 4:-0.145879 5:-0.131752 6:-0.976801 7:-0.984557 8:-0.833145 9:0.473014 10:0.435165 11:-0.982496 13:-0.956522 14:-0.2 15:-0.816907 16:-0.9975 17:-0.997106 18:1 19:-0.909091 20:-0.971831 21:-0.992726 23:-0.94714 24:-0.818182 25:-0.329032 26:0.409836 27:-0.953488 28:-1 29:0.777778 30:1 31:-0.0567321 32:-0.625 33:-0.546875 34:0.58 35:-0.5 36:-0.8 37:-1 38:-1 39:-0.5 40:-0.8 41:0.2 42:-0.84375 43:0.621053 44:-0.880952 45:-0.92 46:-0.52 47:-0.96 48:1 49:0.333333 50:-1 51:1 52:1 
112.629853136419 128 1:0.0275229 2:0.117808 3:-0.941695 4:-0.138604 5:-0.125165 6:-0.976801 7:-0.98444 8:-0.833145 9:0.485579 10:0.44607 11:-0.982496 13:-0.956522 14:-0.2 15:-0.792871 16:-0.9975 17:-0.997106 18:1 19:-0.909091 20:-0.971831 21:-0.991816 23:-0.948821 24:-0.818182 25:-0.329032 26:0.409836 27:-0.953488 28:-1 29:0.777778 30:1 31:-0.0567321 32:-0.625 33:-0.375 34:0.46 35:-0.375 36:-0.82 37:-0.636364 38:-0.94 40:-0.72 41:0.2 42:-0.84375 43:0.6 44:-0.857143 45:-0.946667 46:-0.52 47:-0.96 48:1 49:-0.333333 50:-1 51:1 52:1 
128 0 1:0.0275229 2:0.117808 3:-0.834576 4:-0.136786 5:-0.888011 6:-0.9884 7:-0.999004 8:-0.485442 9:0.48872 10:-0.816631 11:-0.995346 13:-0.978261 14:-0.2 15:0.687527 16:-1 17:-0.991317 18:1 19:-0.863636 20:-1 21:-0.995908 23:-0.531302 24:-0.818182 25:-0.329032 26:0.409836 27:-0.953488 28:-1 29:0.777778 30:1 31:-0.0567321 32:-0.625 33:-0.375 34:0.46 35:-0.375 36:-0.82 37:-0.636364 38:-0.94 40:-0.72 41:0.2 42:-0.84375 43:0.6 44:-0.857143 45:-0.946667 46:-0.52 47:-0.96 48:1 49:-0.333333 50:-1 51:1 52:1 
98.25982486319519 0 1:0.0275229 2:0.117808 3:-0.776949 4:-0.136786 5:-0.899868 6:-0.9884 7:-0.99911 8:-0.298388 9:0.48872 10:-0.836258 11:-0.995346 13:-0.978261 14:-0.2 15:0.687527 16:-1 17:-0.994211 18:1 19:-0.863636 20:-1 21:-0.996363 23:-0.568129 24:-0.818182 25:-0.329032 26:0.409836 27:-0.953488 28:-1 29:0.777778 30:1 31:-0.0567321 32:-0.625 33:-0.375 34:0.46 35:-0.375 36:-0.82 37:-0.636364 38:-0.94 40:-0.72 41:0.2 42:-0.84375 43:0.6 44:-0.857143 45:-0.946667 46:-0.52 47:-0.96 48:1 49:-0.333333 50:-1 51:1 52:1 
0 128 1:0.0275229 2:0.117808 3:-0.866441 4:-0.13133 5:-0.805007 6:-0.9884 7:-0.998266 8:-0.588873 9:0.498142 10:-0.679239 11:-0.995346 13:-0.978261 14:-0.2 15:0.687527 16:-0.9975 17:-0.997106 18:1 19:-0.909091 20:-0.971831 21:-0.992726 23:-0.948023 24:-0.818182 25:-0.329032 26:0.409836 27:-0.953488 28:-1 29:0.777778 30:1 31:-0.0567321 32:-0.625 33:-0.46875 34:0.58 35:-0.5 36:-0.82 37:-1 38:-1 39:-0.375 40:-0.78 41:0.2 42:-0.84375 43:0.621053 44:-0.904762 45:-0.92 46:-0.52 47:-0.96 48:1 49:0.333333 50:-1 51:1 52:1 
0 128 1:0.0275229 2:0.117808 3:-0.941695 4:-0.124055 5:0.110672 6:-0.976801 7:-0.980246 8:-0.833145 9:0.510708 10:0.836438 11:-0.982496 13:-0.956522 14:-0.2 15:-0.856871 16:-0.9975 17:-0.997106 18:1 19:-0.909091 20:-0.975352 21:-0.992726 23:-0.949776 24:-0.818182 25:-0.329032 26:0.409836 27:-0.953488 28:-1 29:0.777778 30:1 31:-0.0567321 32:-0.625 33:-0.46875 34:0.58 35:-0.5 36:-0.82 37:-1 38:-1 39:-0.375 40:-0.78 41:0.2 42:-0.875 43:0.621053 44:-0.904762 45:-0.893333 46:-0.52 47:-0.96 48:1 49:0.333333 50:-1 51:1 52:1 
0 128 1:0.0275229 2:0.117808 3:-0.848136 4:-0.122236 5:-0.894598 6:-0.9884 7:-0.999063 8:-0.529457 9:0.513849 10:-0.827536 11:-0.995346 13:-0.978261 14:-0.2 15:0.687527 16:-1 17:-0.988423 18:1 19:-0.818182 20:-0.992958 21:-0.995908 23:-0.876367 24:-0.818182 25:-0.329032 26:0.409836 27:-0.953488 28:-1 29:0.777778 30:1 31:-0.0567321 32:-0.625 33:-0.46875 34:0.58 35:-0.5 36:-0.82 37:-1 38:-1 39:-0.375 40:-0.78 41:0.2 42:-0.875 43:0.621053 44:-0.904762 45:-0.893333 46:-0.52 47:-0.96 48:1 49:0.333333 50:-1 51:1 52:1 
0 128 1:0.0275229 2:0.117808 3:-0.871864 4:-0.0985929 5:-0.805007 6:-0.9884 7:-0.998266 8:-0.606479 9:0.554684 10:-0.679239 11:-0.995346 13:-0.978261 14:-0.2 15:0.687527 16:-0.9975 17:-0.997106 18:1 19:-0.909091 20:-0.971831 21:-0.992726 23:-0.94918 24:-0.818182 25:-0.329032 26:0.409836 27:-0.953488 28:-1 29:0.777778 30:1 31:-0.0567321 32:-0.625 33:-0.46875 34:0.58 35:-0.5 36:-0.82 37:-1 38:-1 39:-0.375 40:-0.78 41:0.2 42:-0.875 43:0.621053 44:-0.904762 45:-0.92 46:-0.52 47:-0.96 48:1 49:0.333333 50:-1 51:1 52:1 
0 128 1:0.0275229 2:0.117808 3:-0.866441 4:-0.0658562 5:-0.805007 6:-0.9884 7:-0.998266 8:-0.588873 9:0.611224 10:-0.679239 11:-0.995346 13:-0.978261 14:-0.2 15:0.687527 16:-0.9975 17:-0.997106 18:1 19:-0.909091 20:-0.971831 21:-0.992726 23:-0.947626 24:-0.818182 25:-0.329032 26:0.409836 27:-0.953488 28:-1 29:0.777778 30:1 31:-0.0567321 32:-0.625 33:-0.484375 34:0.62 35:-0.5 36:-0.82 37:-1 38:-1 39:-0.5 40:-0.82 42:-0.875 43:0.578947 44:-0.880952 45:-0.893333 46:-0.48 47:-0.96 48:1 49:0.333333 50:-1 51:1 52:1 
0 128 1:0.0275229 2:0.117808 3:-0.804068 4:-0.0422131 5:-0.805007 6:-0.9884 7:-0.998266 8:-0.386414 9:0.652059 10:-0.679239 11:-0.995346 13:-0.978261 14:-0.2 15:0.687527 16:-0.9975 17:-0.997106 18:1 19:-0.909091 20:-0.975352 21:-0.992726 23:-0.950216 24:-0.818182 25:-0.329032 26:0.409836 27:-0.953488 28:-1 29:0.777778 30:1 31:-0.0567321 32:-0.625 33:-0.421875 34:0.62 35:-0.5 36:-0.84 37:-1 38:-1 39:-0.375 40:-0.8 42:-0.875 43:0.621053 44:-0.904762 45:-0.92 46:-0.48 47:-0.98 48:1 49:0.333333 50:-1 51:1 52:1 
0 128 1:0.0275229 2:0.117808 3:-0.684746 4:-0.0276634 5:-0.778656 6:-0.9884 7:-0.998032 8:0.00090303 9:0.677189 10:-0.635622 11:-0.995346 13:-0.978261 14:-0.2 15:0.687527 16:-0.9975 17:-0.997106 18:1 19:-0.909091 20:-0.975352 21:-0.991816 23:-0.946904 24:-0.818182 25:-0.329032 26:0.409836 27:-0.953488 28:-1 29:0.777778 30:1 31:-0.0567321 32:-0.625 33:-0.390625 34:0.66 35:-0.5 36:-0.84 37:-1 38:-1 39:-0.5 40:-0.84 41:0.2 42:-0.84375 43:0.642105 44:-0.904762 45:-0.92 46:-0.48 47:-0.98 48:1 49:-0.333333 50:-1 51:1 52:1 
0 57.33062303027528 1:0.0275229 2:0.117808 3:-0.941695 4:-0.0203886 5:-0.111989 6:-0.976801 7:-0.984206 8:-0.833145 9:0.689753 10:0.467878 11:-0.982496 13:-0.956522 14:-0.2 15:-0.820982 16:-0.9975 17:-0.997106 18:1 19:-0.909091 20:-0.975352 21:-0.992726 23:-0.931899 24:-0.818182 25:-0.329032 26:0.409836 27:-0.953488 28:-1 29:0.777778 30:1 31:-0.0567321 32:-0.625 33:-0.53125 34:0.58 35:-0.5 36:-0.8 37:-1 38:-1 39:-0.5 40:-0.8 42:-0.875 43:0.557895 44:-0.880952 45:-0.893333 46:-0.44 47:-0.98 48:1 49:0.333333 50:-1 51:1 52:1 
128 0 1:0.0275229 2:0.117808 3:-0.941695 4:0.158323 5:-0.889328 6:-0.991453 7:-0.999275 8:-0.833145 9:0.998413 10:-0.818813 11:-0.99873 13:-0.978261 14:-0.2 15:0.687527 16:-1 17:-0.982634 18:-1 19:-0.727273 20:-1 21:-0.994544 23:-0.430426 24:-0.818182 25:-0.329032 26:0.409836 27:-0.953488 28:-1 29:0.777778 30:1 31:-0.0567321 32:-1 33:-0.984375 34:1 35:-1 36:-1 37:-1 38:-1 39:-1 40:-1 41:1 42:-0.96875 43:0.957895 44:-1 45:-1 46:-0.72 47:-1 48:-0.333333 49:-1 50:-1 51:1 52:1 
0 29.32174565268538 1:0.706422 2:-0.668982 3:-0.752542 4:-0.653776 5:-0.993412 6:-0.9884 7:-0.999941 8:-0.278919 9:0.774859 10:-0.991912 11:-0.970008 13:-0.978261 14:-0.2 15:0.687527 16:-1 17:-0.945007 18:-1 19:-0.681818 20:-1 21:-1 23:-0.942432 24:-1 25:-0.86129 26:-0.680328 27:-1 28:-1 29:-1 30:-0.805714 31:-0.911204 32:-0.875 33:-1 34:-1 35:-1 36:-1 37:-1 38:-1 39:-1 40:-1 41:-1 42:-1 43:-1 44:-1 45:0.333333 46:1 47:-1 48:-1 49:-1 50:-1 51:-0.619415 52:-0.730382 
0 5.677456960690568 1:0.706422 2:-0.668982 3:-0.856949 4:-0.633962 5:-0.891963 6:-0.989621 7:-0.99914 8:-0.592537 9:0.876575 10:-0.836515 11:-0.974023 13:-0.978261 14:-0.2 15:0.687527 16:-0.9975 17:-0.858177 18:-1 19:-0.636364 20:-0.992958 21:-0.989088 23:-0.687054 24:-1 25:-0.86129 26:-0.680328 27:-1 28:-1 29:-1 30:-0.805714 31:-0.911204 32:-0.75 33:-0.359375 34:0.88 35:-1 36:-1 37:-1 38:-1 39:-0.625 40:-0.88 42:-0.8125 43:0.663158 44:-1 45:-0.946667 46:-0.32 47:-0.98 48:1 49:-1 50:-1 51:-0.619415 52:-0.730382 
0 128 1:0.706422 2:-0.668982 3:-0.867119 4:-0.633962 5:-0.565217 6:-0.948107 7:-0.982702 8:-0.623085 9:0.876575 10:-0.336014 11:-0.837347 13:-0.891304 14:-0.2 15:0.394001 16:-0.9125 17:-0.997106 18:-1 19:-0.681818 20:-0.985915 21:-0.887702 23:-0.22747 24:-1 25:-0.86129 26:-0.680328 27:-1 28:-1 29:-1 30:-0.805714 31:-0.911204 32:-0.75 33:-0.359375 34:0.88 35:-1 36:-1 37:-1 38:-1 39:-0.625 40:-0.88 42:-0.8125 43:0.663158 44:-1 45:-0.946667 46:-0.32 47:-0.98 48:1 49:-1 50:-1 51:-0.619415 52:-0.730382 
0 128 1:0.706422 2:-0.668982 3:-0.758644 4:-0.627453 5:-0.87747 6:-0.989621 7:-0.999025 8:-0.297246 9:0.90999 10:-0.814314 11:-0.974023 13:-0.978261 14:-0.2 15:0.687527 16:-0.9975 17:-0.997106 18:-1 19:-0.636364 20:-1 21:-0.99409 23:-0.41217 24:-1 25:-0.86129 26:-0.680328 27:-1 28:-1 29:-1 30:-0.805714 31:-0.911204 32:-0.75 33:-0.359375 34:0.88 35:-1 36:-1 37:-1 38:-1 39:-0.625 40:-0.88 42:-0.8125 43:0.663158 44:-1 45:-0.946667 46:-0.32 47:-0.98 48:1 49:-1 50:-1 51:-0.619415 52:-0.730382 
0 128 1:0.706422 2:-0.668982 3:-0.695593 4:-0.627453 5:-0.993412 6:-0.989621 7:-0.999948 8:-0.107853 9:0.90999 10:-0.991912 11:-0.974023 13:-0.978261 14:-0.2 15:0.687527 16:-1 17:-0.997106 18:-1 19:-0.681818 20:-0.985915 21:-1 23:-0.9969 24:-1 25:-0.86129 26:-0.680328 27:-1 28:-1 29:-1 30:-0.805714 31:-0.911204 32:-0.75 33:-0.359375 34:0.88 35:-1 36:-1 37:-1 38:-1 39:-0.625 40:-0.88 42:-0.8125 43:0.663158 44:-1 45:-0.946667 46:-0.32 47:-0.98 48:1 49:-1 50:-1 51:-0.619415 52:-0.730382 
128 0 1:0.669725 2:-0.851174 3:-0.731525 4:-0.998086 5:-0.753623 6:-0.991453 7:-0.998386 8:-0.212529 9:-0.984818 10:-0.623081 11:-0.956397 13:-0.978261 14:-0.2 15:0.687527 16:-0.9875 17:-0.971056 18:-1 19:-0.590909 20:-1 21:-0.984087 23:-0.0195178 24:-0.909091 25:-0.812903 26:-0.614754 27:-0.906977 29:-1 30:-0.245714 31:-0.777044 32:-1 33:-0.921875 34:0.68 35:-1 36:-1 37:-1 38:-1 39:-0.875 40:-0.68 41:0.2 42:-0.90625 43:0.705263 44:-1 45:-1 46:-0.36 47:-0.96 48:-1 49:-1 50:-1 51:-0.413863 52:-0.694165 
128 0 1:0.669725 2:-0.851174 3:-0.986441 4:-0.977888 5:-0.953887 6:-0.991453 7:-0.999698 8:-0.981352 9:-0.793977 10:-0.931081 11:-0.956397 13:-0.978261 14:-0.2 15:0.687527 16:-1 17:-0.878437 18:-1 19:-0.409091 20:-1 21:-0.985451 23:-0.00732221 24:-0.909091 25:-0.812903 26:-0.614754 27:-0.906977 29:-1 30:-0.245714 31:-0.777044 32:-1 33:-0.984375 34:1 35:-1 36:-1 37:-1 38:-1 39:-1 40:-1 41:0.2 42:-0.96875 43:0.810526 44:-1 45:-1 46:-0.44 47:-1 48:0.333333 49:-1 50:-1 51:-0.413863 52:-0.694165 
128 0 1:0.669725 2:-0.851174 3:-0.910508 4:-0.978654 5:-0.815547 6:-0.992674 7:-0.998964 8:-0.752341 9:-0.801211 10:-0.718318 11:-0.963797 13:-0.978261 14:-0.2 15:0.687527 16:-0.99 17:-0.93343 18:-1 19:-0.5 20:-1 21:-0.985451 23:-0.00732221 24:-0.909091 25:-0.812903 26:-0.614754 27:-0.906977 29:-1 30:-0.245714 31:-0.777044 32:-1 33:-0.921875 34:1 35:-1 36:-1 37:-1 38:-1 39:-1 40:-1 41:0.2 42:-0.84375 43:0.810526 44:-1 45:-1 46:-0.44 47:-1 48:-1 49:-1 50:-1 51:-0.413863 52:-0.694165 
128 0 1:0.669725 2:-0.851174 3:-0.808136 4:-0.978654 5:-0.964427 6:-0.992674 7:-0.9998 8:-0.443586 9:-0.801211 10:-0.947291 11:-0.963797 13:-0.978261 14:-0.2 15:0.687527 16:-1 17:-0.994211 18:-1 19:-0.5 20:-1 21:-0.997727 23:-0.697696 24:-0.909091 25:-0.812903 26:-0.614754 27:-0.906977 29:-1 30:-0.245714 31:-0.777044 32:-1 33:-0.984375 34:1 35:-1 36:-1 37:-1 38:-1 39:-1 40:-1 41:0.2 42:-0.96875 43:0.810526 44:-1 45:-1 46:-0.44 47:-1 48:0.333333 49:-1 50:-1 51:-0.413863 52:-0.694165 
128 0 1:0.669725 2:-0.851174 3:-0.905763 4:-0.929836 5:-0.881423 6:-0.992063 7:-0.999278 8:-0.738028 9:-0.339935 10:-0.819634 11:-0.960101 13:-0.978261 14:-0.2 15:0.687527 16:-0.995 17:-0.965268 18:1 19:-0.136364 20:-1 21:-0.991816 23:-0.263593 24:-0.909091 25:-0.812903 26:-0.614754 27:-0.906977 29:-1 30:-0.245714 31:-0.777044 32:-1 33:-0.953125 34:1 35:-1 36:-1 37:-1 38:-1 39:-1 40:-1 42:-0.90625 43:0.789474 44:-1 45:-1 46:-0.4 47:-1 48:-0.333333 49:-1 50:-1 51:-0.413863 52:-0.694165 
128 0 1:0.669725 2:-0.851174 3:-0.905763 4:-0.882359 5:-0.794466 6:-0.992063 7:-0.998749 8:-0.738028 9:0.108681 10:-0.685896 11:-0.960101 13:-0.978261 14:-0.2 15:0.687527 16:-0.99 17:-0.965268 18:1 19:-0.136364 20:-1 21:-0.986361 23:-0.0811993 24:-0.909091 25:-0.812903 26:-0.614754 27:-0.906977 29:-1 30:-0.245714 31:-0.777044 32:-1 33:-0.9375 34:0.6 35:-1 36:-1 37:-1 38:-1 39:-0.875 40:-0.6 41:0.2 42:-0.90625 43:0.705263 44:-1 45:-1 46:-0.36 47:-0.94 48:-1 49:-1 50:-1 51:-0.413863 52:-0.694165 
128 128 1:0.669725 2:-0.851174 3:-0.905763 4:-0.835264 5:-0.848485 6:-0.992063 7:-0.999078 8:-0.738028 9:0.553678 10:-0.768975 11:-0.960101 13:-0.978261 14:-0.2 15:0.687527 16:-0.9925 17:-0.965268 18:1 19:-0.136364 20:-1 21:-0.989543 23:-0.151396 24:-0.909091 25:-0.812903 26:-0.614754 27:-0.906977 29:-1 30:-0.245714 31:-0.777044 32:-1 33:-0.9375 34:1 35:-1 36:-1 37:-1 38:-1 39:-1 40:-1 42:-0.875 43:0.768421 44:-1 45:-1 46:-0.36 47:-1 48:-1 49:-1 50:-1 51:-0.413863 52:-0.694165 
0 128 1:0.669725 2:-0.851174 3:-0.881356 4:-0.813248 5:-0.318841 6:-0.990842 7:-0.995218 8:-0.664418 9:0.761705 10:0.0456036 11:-0.952701 13:-0.978261 14:-0.2 15:0.687527 16:-0.9725 17:-0.985528 18:1 19:-0.272727 20:-1 21:-0.960446 23:0.465781 24:-0.909091 25:-0.812903 26:-0.614754 27:-0.906977 29:-1 30:-0.245714 31:-0.777044 32:-0.875 33:-0.84375 34:0.44 35:-0.875 36:-0.86 37:-0.818182 38:-0.86 39:-0.75 40:-0.72 41:0.2 42:-0.875 43:0.6 44:-0.857143 45:-0.973333 46:-0.48 47:-0.96 48:-1 49:1 50:-1 51:-0.413863 52:-0.694165 
128 128 1:0.669725 2:-0.851174 3:-0.881356 4:-0.811812 5:-0.484848 6:-0.990842 7:-0.996383 8:-0.664418 9:0.775272 10:-0.209712 11:-0.952701 13:-0.978261 14:-0.2 15:0.687527 16:-0.9725 17:-0.994211 18:1 19:-0.272727 20:-1 21:-0.971357 23:0.316209 24:-0.909091 25:-0.812903 26:-0.614754 27:-0.906977 29:-1 30:-0.245714 31:-0.777044 32:-0.875 33:-0.84375 34:0.44 35:-1 36:-1 37:-0.818182 38:-0.86 39:-0.625 40:-0.58 42:-0.90625 43:0.536842 44:-0.97619 45:-0.973333 46:-0.24 47:-0.92 48:-1 49:-1 50:-1 51:-0.413863 52:-0.694165 
0 128 1:0.853211 2:-0.742955 3:-0.999322 4:-0.999904 5:-1 6:-1 7:-1 8:-1 9:-1 10:-1 11:-1 13:-1 14:-1 15:-1 16:-0.9675 17:-0.939219 18:-1 20:-1 21:-0.970448 23:0.343632 24:-0.909091 25:-0.593548 26:-0.409836 27:-0.906977 28:-1 29:-1 30:-0.462857 31:-0.474519 32:-1 33:-0.78125 34:0.76 35:-1 36:-1 37:-1 38:-1 39:-0.75 40:-0.76 41:-0.2 42:-0.84375 43:0.6 44:-1 45:-1 46:-0.16 47:-0.94 48:-1 49:-1 50:-1 51:0.243979 52:-0.875252 
0 128 1:0.853211 2:-0.742955 3:-0.999322 4:-0.999904 5:-1 6:-1 7:-1 8:-1 9:-1 10:-1 11:-1 13:-1 14:-1 15:-1 16:-1 17:-0.968162 18:-1 19:0.0454545 20:-1 21:-1 23:-0.940737 24:-0.909091 25:-0.593548 26:-0.409836 27:-0.906977 28:-1 29:-1 30:-0.462857 31:-0.474519 32:-1 33:-0.953125 34:0.2 35:-1 36:-1 37:-1 38:-1 39:-0.75 40:-0.2 41:-0.2 42:-0.90625 43:0.557895 44:-1 45:-1 46:-0.48 47:-0.74 48:-0.333333 49:-1 50:-1 51:0.243979 52:-0.875252 
0 128 1:0.853211 2:-0.742955 3:-0.999322 4:-0.999904 5:-1 6:-1 7:-1 8:-1 9:-1 10:-1 11:-1 13:-1 14:-1 15:-1 16:-0.9975 17:-0.991317 18:-1 20:-1 21:-0.994544 23:-0.430426 24:-0.909091 25:-0.593548 26:-0.409836 27:-0.906977 28:-1 29:-1 30:-0.462857 31:-0.474519 32:-1 33:-0.953125 34:0.2 35:-1 36:-1 37:-1 38:-1 39:-0.75 40:-0.2 41:-0.2 42:-0.90625 43:0.557895 44:-1 45:-1 46:-0.48 47:-0.74 48:-0.333333 49:-1 50:-1 51:0.243979 52:-0.875252 
0 128 1:0.853211 2:-0.742955 3:-0.999322 4:-0.999904 5:-1 6:-1 7:-1 8:-1 9:-1 10:-1 11:-1 13:-1 14:-1 15:-1 16:-1 17:-0.968162 18:-1 19:0.0454545 20:-1 21:-1 23:-0.940737 24:-0.909091 25:-0.593548 26:-0.409836 27:-0.906977 28:-1 29:-1 30:-0.462857 31:-0.474519 32:-1 33:-0.9375 34:0.34 35:-1 36:-1 37:-1 38:-1 39:-0.75 40:-0.34 42:-0.90625 43:0.663158 44:-1 45:-1 46:-0.52 47:-0.84 48:-0.333333 49:-1 50:-1 51:0.243979 52:-0.875252 
0 128 1:0.853211 2:-0.742955 3:-0.999322 4:-0.999904 5:-1 6:-1 7:-1 8:-1 9:-1 10:-1 11:-1 13:-1 14:-1 15:-1 16:-1 17:-0.997106 18:-1 19:-0.0909091 20:-0.996479 21:-1 23:-0.987498 24:-0.909091 25:-0.593548 26:-0.409836 27:-0.906977 28:-1 29:-1 30:-0.462857 31:-0.474519 32:-0.875 33:-0.75 34:1 35:-1 36:-1 37:-1 38:-1 39:-1 40:-1 42:-0.5 43:0.705263 44:-1 45:-0.973333 46:-0.28 47:-1 48:-0.333333 49:-1 50:-1 51:0.243979 52:-0.875252 
0 73.63787591037877 1:0.853211 2:-0.742955 3:-0.999322 4:-0.999904 5:-1 6:-1 7:-1 8:-1 9:-1 10:-1 11:-1 13:-1 14:-1 15:-1 16:-0.9325 17:-0.950796 18:-1 19:-0.0454545 20:-1 21:-0.945442 23:0.583567 24:-0.909091 25:-0.593548 26:-0.409836 27:-0.906977 28:-1 29:-1 30:-0.462857 31:-0.474519 32:-0.625 33:-0.6875 34:1 35:-1 36:-1 37:-1 38:-1 39:-1 40:-1 42:-0.84375 43:0.684211 44:-1 45:-0.92 46:-0.36 47:-1 48:-1 49:-1 50:-1 51:0.243979 52:-0.875252 
0 128 1:0.853211 2:-0.742955 3:-0.999322 4:-0.999904 5:-1 6:-1 7:-1 8:-1 9:-1 10:-1 11:-1 13:-1 14:-1 15:-1 16:-0.985 17:-0.982634 18:-1 19:-0.0909091 20:-0.992958 21:-0.926802 23:0.0811308 24:-0.909091 25:-0.593548 26:-0.409836 27:-0.906977 28:-1 29:-1 30:-0.462857 31:-0.474519 32:-0.625 33:-0.71875 34:-0.1 35:-0.75 36:-0.9 37:-1 38:-1 39:1 42:-0.9375 43:0.368421 44:-0.857143 45:-0.92 46:-0.84 47:-0.6 48:-1 49:1 50:-1 51:0.243979 52:-0.875252 
128 128 1:0.853211 2:-0.742955 3:-0.823051 4:-0.969178 5:-0.241107 6:-0.991453 7:-0.995027 8:-0.499117 9:-0.80836 10:0.142 11:-0.973646 13:-0.978261 14:-0.2 15:0.687527 16:-0.9675 17:-0.927641 18:-1 19:-0.272727 20:-0.982394 21:-0.950443 23:-0.433004 24:-0.909091 25:-0.593548 26:-0.409836 27:-0.906977 28:-1 29:-1 30:-0.462857 31:-0.474519 32:-1 33:-0.78125 34:1 35:-1 36:-1 37:-1 38:-1 39:-1 40:-1 41:0.2 42:-0.9375 43:0.705263 44:-1 45:-0.84 46:-0.48 47:-1 48:-1 49:-1 50:-1 51:0.243979 52:-0.875252 
128 0 1:0.853211 2:-0.742955 3:-0.558644 4:-0.927922 5:-0.97365 6:-0.991453 7:-0.999827 8:0.282507 9:-0.548359 10:-0.96228 11:-0.973646 13:-0.978261 14:-0.2 15:0.687527 16:-1 17:-0.994211 18:-1 19:-0.0454545 20:-1 21:-0.990907 23:-0.230473 24:-0.909091 25:-0.593548 26:-0.409836 27:-0.906977 28:-1 29:-1 30:-0.462857 31:-0.474519 32:-1 33:-0.96875 34:0.34 35:-1 36:-1 37:-1 38:-1 39:-0.875 40:-0.34 41:-0.8 42:-0.9375 43:0.0526316 44:-1 45:-1 47:-0.5 48:0.333333 49:-1 50:-1 51:0.243979 52:-0.875252 
0 128 1:0.853211 2:-0.742955 3:-0.795254 4:-0.896621 5:-0.729908 6:-0.990842 7:-0.998104 8:-0.416947 9:-0.351097 10:-0.594849 11:-0.97118 13:-0.978261 14:-0.2 15:0.687527 16:-0.99 17:-0.985528 18:-1 19:0.227273 20:-1 21:-0.985451 23:-0.00732221 24:-0.909091 25:-0.593548 26:-0.409836 27:-0.906977 28:-1 29:-1 30:-0.462857 31:-0.474519 32:-0.875 33:-0.921875 34:1 35:-1 36:-1 37:-1 38:-1 39:-1 40:-1 42:-0.90625 43:0.621053 44:-1 45:-0.786667 46:-0.44 47:-1 48:-1 49:-1 50:-1 51:0.243979 52:-0.875252 
0 22.31900356087524 1:0.853211 2:-0.742955 3:-0.406102 4:-0.983057 5:-0.844532 6:-0.945055 7:-0.993451 8:0.733446 9:-0.895832 10:-0.767642 11:-0.786123 13:-0.869565 14:-0.2 15:0.139319 16:-0.97 17:-0.968162 18:-1 19:-0.181818 20:-1 21:-0.963173 23:0.437101 24:-0.909091 25:-0.593548 26:-0.409836 27:-0.906977 28:-1 29:-1 30:-0.462857 31:-0.474519 32:-1 33:-0.796875 34:0.74 35:-1 36:-1 37:-1 38:-1 39:-0.75 40:-0.74 42:-0.53125 43:0.705263 44:-1 45:-0.973333 46:-0.4 47:-0.96 48:-1 49:-1 50:-1 51:0.243979 52:-0.875252 
21.0176916049421 0 1:0.853211 2:-0.436888 3:-0.698305 4:-0.967838 5:-0.841897 6:-0.991453 7:-0.998964 8:-0.130352 9:-0.897935 10:-0.763668 11:-0.990404 13:-0.978261 14:-0.2 15:0.687527 16:-0.99 17:-0.982634 18:-1 19:-0.636364 20:-1 21:-0.990452 23:-0.193828 24:-0.727273 25:-0.696774 26:-0.688525 27:-0.953488 29:-1 30:-0.0171429 31:-0.667928 32:-0.875 33:-0.921875 34:1 35:-1 36:-1 37:-1 38:-1 39:-1 40:-1 41:-0.4 42:-0.84375 43:0.557895 44:-1 45:-0.893333 46:-0.16 47:-1 48:-1 49:-1 50:-1 51:-0.217503 52:-0.315895 
128 0 1:0.853211 2:-0.436888 3:-0.686102 4:-0.9642 5:-0.890646 6:-0.991453 7:-0.999283 8:-0.0942768 9:-0.886131 10:-0.837155 11:-0.990404 13:-0.978261 14:-0.2 15:0.687527 16:-1 17:-0.97974 18:-1 19:-0.681818 20:-1 21:-0.994999 23:-0.462557 24:-0.727273 25:-0.696774 26:-0.688525 27:-0.953488 29:-1 30:-0.0171429 31:-0.667928 32:-1 33:-0.984375 34:1 35:-1 36:-1 37:-1 38:-1 39:-1 40:-1 41:1 42:-0.96875 43:0.957895 44:-1 45:-1 46:-0.72 47:-1 48:-1 49:-1 50:-1 51:-0.217503 52:-0.315895 
128 0 1:0.853211 2:-0.436888 3:-0.799322 4:-0.957404 5:-0.959157 6:-0.991453 7:-0.999732 8:-0.428972 9:-0.864074 10:-0.940432 11:-0.990404 13:-0.978261 14:-0.2 15:0.687527 16:-1 17:-0.988423 18:-1 19:-0.590909 20:-1 21:-0.998181 23:-0.734822 24:-0.727273 25:-0.696774 26:-0.688525 27:-0.953488 29:-1 30:-0.0171429 31:-0.667928 32:-1 33:-0.984375 34:1 35:-1 36:-1 37:-1 38:-1 39:-1 40:-1 42:-0.96875 43:0.768421 44:-1 45:-1 46:-0.36 47:-1 48:0.333333 49:-1 50:-1 51:-0.217503 52:-0.315895 
128 0 1:0.853211 2:-0.436888 3:-0.895593 4:-0.930506 5:-0.953887 6:-0.991453 7:-0.999698 8:-0.713564 9:-0.77678 10:-0.932488 11:-0.990404 13:-0.978261 14:-0.2 15:0.687527 16:-1 17:-0.947902 18:-1 19:-0.590909 20:-1 21:-0.997272 23:-0.647309 24:-0.727273 25:-0.696774 26:-0.688525 27:-0.953488 29:-1 30:-0.0171429 31:-0.667928 32:-1 33:-0.984375 34:1 35:-1 36:-1 37:-1 38:-1 39:-1 40:-1 41:0.4 42:-0.96875 43:0.852632 44:-1 45:-1 46:-0.52 47:-1 48:1 49:-1 50:-1 51:-0.217503 52:-0.315895 
128 0 1:0.853211 2:-0.436888 3:-0.80678 4:-0.921604 5:-0.765481 6:-0.991453 7:-0.998463 8:-0.451018 9:-0.747891 10:-0.648474 11:-0.990404 13:-0.978261 14:-0.2 15:0.687527 16:-0.9875 17:-0.982634 18:-1 19:-0.545455 20:-0.996479 21:-0.984997 23:-0.537002 24:-0.727273 25:-0.696774 26:-0.688525 27:-0.953488 29:-1 30:-0.0171429 31:-0.667928 32:-0.875 33:-0.90625 34:1 35:-1 36:-1 37:-1 38:-1 39:-1 40:-1 41:-0.2 42:-0.8125 43:0.663158 44:-1 45:-0.92 46:-0.28 47:-1 48:-0.333333 49:-1 50:-1 51:-0.217503 52:-0.315895 
128 0 1:0.853211 2:-0.436888 3:-0.895593 4:-0.901216 5:-0.953887 6:-0.991453 7:-0.999698 8:-0.713564 9:-0.681721 10:-0.932488 11:-0.990404 13:-0.978261 14:-0.2 15:0.687527 16:-1 17:-0.945007 18:-1 19:-0.590909 20:-1 21:-0.997272 23:-0.647309 24:-0.727273 25:-0.696774 26:-0.688525 27:-0.953488 29:-1 30:-0.0171429 31:-0.667928 32:-1 33:-0.984375 34:1 35:-1 36:-1 37:-1 38:-1 39:-1 40:-1 41:0.4 42:-0.96875 43:0.852632 44:-1 45:-1 46:-0.52 47:-1 48:1 49:-1 50:-1 51:-0.217503 52:-0.315895 
128 0 1:0.853211 2:-0.436888 3:-0.80678 4:-0.860151 5:-0.776021 6:-0.991453 7:-0.998532 8:-0.451018 9:-0.548452 10:-0.664362 11:-0.990404 13:-0.978261 14:-0.2 15:0.687527 16:-1 17:-0.965268 18:1 19:-0.545455 20:-1 21:-0.986815 23:-0.0402691 24:-0.727273 25:-0.696774 26:-0.688525 27:-0.953488 29:-1 30:-0.0171429 31:-0.667928 32:-0.75 33:-0.90625 34:0.34 35:-1 36:-1 37:-1 38:-1 39:-0.625 40:-0.34 41:0.2 42:-0.9375 43:0.663158 44:-1 45:-0.84 46:-0.76 47:-0.84 48:-0.333333 49:-1 50:-1 51:-0.217503 52:-0.315895 
0 128 1:0.853211 2:-0.436888 3:-0.80678 4:-0.832105 5:-0.615283 6:-0.991453 7:-0.997479 8:-0.451018 9:-0.457431 10:-0.422056 11:-0.990404 13:-0.978261 14:-0.2 15:0.687527 16:-0.9775 17:-0.994211 18:1 19:-0.590909 20:-0.978873 21:-0.976358 23:-0.746889 24:-0.727273 25:-0.696774 26:-0.688525 27:-0.953488 29:-1 30:-0.0171429 31:-0.667928 32:-1 33:-0.84375 34:1 35:-1 36:-1 37:-1 38:-1 39:-1 40:-1 41:-0.2 42:-0.6875 43:0.705263 44:-1 45:-1 46:-0.24 47:-1 48:-1 49:-1 50:-1 51:-0.217503 52:-0.315895 
128 128 1:0.853211 2:-0.436888 3:-0.80678 4:-0.787977 5:-0.171278 6:-0.991453 7:-0.99457 8:-0.451018 9:-0.314221 10:0.247263 11:-0.990404 13:-0.978261 14:-0.2 15:0.687527 16:-0.9375 17:-0.988423 18:1 19:-0.590909 20:-0.985915 21:-0.94226 23:-0.0228192 24:-0.727273 25:-0.696774 26:-0.688525 27:-0.953488 29:-1 30:-0.0171429 31:-0.667928 32:-0.5 33:-0.59375 34:1 35:-1 36:-1 37:-1 38:-1 39:-1 40:-1 41:-0.2 42:-0.90625 43:0.536842 44:-1 45:-0.813333 46:-0.2 47:-1 48:-1 49:-1 50:-1 51:-0.217503 52:-0.315895 
110.6084600781053 0 1:0.853211 2:-0.436888 3:-0.95322 4:-0.744041 5:-0.790514 6:-0.991453 7:-0.998627 8:-0.883919 9:-0.171632 10:-0.68621 11:-0.990404 13:-0.978261 14:-0.2 15:0.687527 16:-0.995 17:-0.985528 18:1 19:-0.5 20:-1 21:-0.98727 23:-0.0572958 24:-0.727273 25:-0.696774 26:-0.688525 27:-0.953488 29:-1 30:-0.0171429 31:-0.667928 32:-0.875 33:-0.875 34:0.14 35:-0.5 36:-0.44 37:-1 38:-1 39:-0.75 40:-0.72 41:0.4 42:-0.875 43:0.431579 44:-0.666667 45:-0.893333 46:-0.56 47:-0.96 48:1 49:-0.333333 50:-1 51:-0.217503 52:-0.315895 
128 128 1:0.853211 2:-0.436888 3:-0.80678 4:-0.737149 5:-0.765481 6:-0.991453 7:-0.998463 8:-0.451018 9:-0.149266 10:-0.648474 11:-0.990404 13:-0.978261 14:-0.2 15:0.687527 16:-0.9875 17:-0.982634 18:1 19:-0.545455 20:-0.996479 21:-0.984997 23:-0.537002 24:-0.727273 25:-0.696774 26:-0.688525 27:-0.953488 29:-1 30:-0.0171429 31:-0.667928 32:-0.875 33:-0.90625 34:1 35:-1 36:-1 37:-1 38:-1 39:-1 40:-1 41:-0.2 42:-0.8125 43:0.663158 44:-1 45:-0.92 46:-0.28 47:-1 48:-0.333333 49:-1 50:-1 51:-0.217503 52:-0.315895 
116.6286414664245 0 1:0.853211 2:-0.436888 3:-0.95322 4:-0.684981 5:-0.828722 6:-0.991453 7:-0.998878 8:-0.883919 9:0.0200409 10:-0.743808 11:-0.990404 13:-0.978261 14:-0.2 15:0.687527 16:-0.9975 17:-0.985528 18:1 19:-0.545455 20:-1 21:-0.990452 23:-0.193828 24:-0.727273 25:-0.696774 26:-0.688525 27:-0.953488 29:-1 30:-0.0171429 31:-0.667928 32:-1 33:-0.9375 34:-0.2 35:-0.5 36:-0.2 37:-1 38:-1 39:-0.75 40:-0.6 41:0.8 42:-0.84375 43:0.347368 44:-0.571429 45:-0.92 46:-0.56 47:-0.94 48:1 49:-0.333333 50:-1 51:-0.217503 52:-0.315895 
